{"learner":{"attributes":{"scikit_learn":"{\"_estimator_type\": \"classifier\"}"},"feature_names":["Source_Port","Destination_Port","Protocol","Flow_Duration","Total_Fwd_Packets","Total_Backward_Packets","Total_Length_of_Fwd_Packets","Total_Length_of_Bwd_Packets","Fwd_Packet_Length_Max","Fwd_Packet_Length_Min","Fwd_Packet_Length_Mean","Fwd_Packet_Length_Std","Bwd_Packet_Length_Max","Bwd_Packet_Length_Min","Bwd_Packet_Length_Mean","Bwd_Packet_Length_Std","Flow_Bytes/s","Flow_Packets/s","Flow_IAT_Mean","Flow_IAT_Std","Flow_IAT_Max","Flow_IAT_Min","Fwd_IAT_Total","Fwd_IAT_Mean","Fwd_IAT_Std","Fwd_IAT_Max","Fwd_IAT_Min","Bwd_IAT_Total","Bwd_IAT_Mean","Bwd_IAT_Std","Bwd_IAT_Max","Bwd_IAT_Min","Fwd_PSH_Flags","Bwd_PSH_Flags","Fwd_URG_Flags","Bwd_URG_Flags","Fwd_Header_Length","Bwd_Header_Length","Fwd_Packets/s","Bwd_Packets/s","Min_Packet_Length","Max_Packet_Length","Packet_Length_Mean","Packet_Length_Std","Packet_Length_Variance","FIN_Flag_Count","SYN_Flag_Count","RST_Flag_Count","PSH_Flag_Count","ACK_Flag_Count","URG_Flag_Count","CWE_Flag_Count","ECE_Flag_Count","Down/Up_Ratio","Average_Packet_Size","Avg_Fwd_Segment_Size","Avg_Bwd_Segment_Size","Fwd_Avg_Bytes/Bulk","Fwd_Avg_Packets/Bulk","Fwd_Avg_Bulk_Rate","Bwd_Avg_Bytes/Bulk","Bwd_Avg_Packets/Bulk","Bwd_Avg_Bulk_Rate","Subflow_Fwd_Packets","Subflow_Fwd_Bytes","Subflow_Bwd_Packets","Subflow_Bwd_Bytes","Init_Win_bytes_forward","Init_Win_bytes_backward","act_data_pkt_fwd","min_seg_size_forward","Active_Mean","Active_Std","Active_Max","Active_Min","Idle_Mean","Idle_Std","Idle_Max","Idle_Min","Protocol_Name_Other","Protocol_Name_TCP","Protocol_Name_UDP","Service_DNS","Service_Ephemeral","Service_FTP","Service_HTTP","Service_HTTPS","Service_Other","Service_SSH"],"feature_types":["float","float","float","float","float","float","float","float","float","float","float","float","float","float","float","float","float","float","float","float","float","float","float","float","float","float","float","float","float","float","float","float","float","float","float","float","float","float","float","float","float","float","float","float","float","float","float","float","float","float","float","float","float","float","float","float","float","float","float","float","float","float","float","float","float","float","float","float","float","float","float","float","float","float","float","float","float","float","float","i","i","i","i","i","i","i","i","i","i"],"gradient_booster":{"model":{"gbtree_model_param":{"num_parallel_tree":"1","num_trees":"1500"},"iteration_indptr":[0,15,30,45,60,75,90,105,120,135,150,165,180,195,210,225,240,255,270,285,300,315,330,345,360,375,390,405,420,435,450,465,480,495,510,525,540,555,570,585,600,615,630,645,660,675,690,705,720,735,750,765,780,795,810,825,840,855,870,885,900,915,930,945,960,975,990,1005,1020,1035,1050,1065,1080,1095,1110,1125,1140,1155,1170,1185,1200,1215,1230,1245,1260,1275,1290,1305,1320,1335,1350,1365,1380,1395,1410,1425,1440,1455,1470,1485,1500],"tree_info":[0,1,2,3,4,5,6,7,8,9,10,11,12,13,14,0,1,2,3,4,5,6,7,8,9,10,11,12,13,14,0,1,2,3,4,5,6,7,8,9,10,11,12,13,14,0,1,2,3,4,5,6,7,8,9,10,11,12,13,14,0,1,2,3,4,5,6,7,8,9,10,11,12,13,14,0,1,2,3,4,5,6,7,8,9,10,11,12,13,14,0,1,2,3,4,5,6,7,8,9,10,11,12,13,14,0,1,2,3,4,5,6,7,8,9,10,11,12,13,14,0,1,2,3,4,5,6,7,8,9,10,11,12,13,14,0,1,2,3,4,5,6,7,8,9,10,11,12,13,14,0,1,2,3,4,5,6,7,8,9,10,11,12,13,14,0,1,2,3,4,5,6,7,8,9,10,11,12,13,14,0,1,2,3,4,5,6,7,8,9,10,11,12,13,14,0,1,2,3,4,5,6,7,8,9,10,11,12,13,14,0,1,2,3,4,5,6,7,8,9,10,11,12,13,14,0,1,2,3,4,5,6,7,8,9,10,11,12,13,14,0,1,2,3,4,5,6,7,8,9,10,11,12,13,14,0,1,2,3,4,5,6,7,8,9,10,11,12,13,14,0,1,2,3,4,5,6,7,8,9,10,11,12,13,14,0,1,2,3,4,5,6,7,8,9,10,11,12,13,14,0,1,2,3,4,5,6,7,8,9,10,11,12,13,14,0,1,2,3,4,5,6,7,8,9,10,11,12,13,14,0,1,2,3,4,5,6,7,8,9,10,11,12,13,14,0,1,2,3,4,5,6,7,8,9,10,11,12,13,14,0,1,2,3,4,5,6,7,8,9,10,11,12,13,14,0,1,2,3,4,5,6,7,8,9,10,11,12,13,14,0,1,2,3,4,5,6,7,8,9,10,11,12,13,14,0,1,2,3,4,5,6,7,8,9,10,11,12,13,14,0,1,2,3,4,5,6,7,8,9,10,11,12,13,14,0,1,2,3,4,5,6,7,8,9,10,11,12,13,14,0,1,2,3,4,5,6,7,8,9,10,11,12,13,14,0,1,2,3,4,5,6,7,8,9,10,11,12,13,14,0,1,2,3,4,5,6,7,8,9,10,11,12,13,14,0,1,2,3,4,5,6,7,8,9,10,11,12,13,14,0,1,2,3,4,5,6,7,8,9,10,11,12,13,14,0,1,2,3,4,5,6,7,8,9,10,11,12,13,14,0,1,2,3,4,5,6,7,8,9,10,11,12,13,14,0,1,2,3,4,5,6,7,8,9,10,11,12,13,14,0,1,2,3,4,5,6,7,8,9,10,11,12,13,14,0,1,2,3,4,5,6,7,8,9,10,11,12,13,14,0,1,2,3,4,5,6,7,8,9,10,11,12,13,14,0,1,2,3,4,5,6,7,8,9,10,11,12,13,14,0,1,2,3,4,5,6,7,8,9,10,11,12,13,14,0,1,2,3,4,5,6,7,8,9,10,11,12,13,14,0,1,2,3,4,5,6,7,8,9,10,11,12,13,14,0,1,2,3,4,5,6,7,8,9,10,11,12,13,14,0,1,2,3,4,5,6,7,8,9,10,11,12,13,14,0,1,2,3,4,5,6,7,8,9,10,11,12,13,14,0,1,2,3,4,5,6,7,8,9,10,11,12,13,14,0,1,2,3,4,5,6,7,8,9,10,11,12,13,14,0,1,2,3,4,5,6,7,8,9,10,11,12,13,14,0,1,2,3,4,5,6,7,8,9,10,11,12,13,14,0,1,2,3,4,5,6,7,8,9,10,11,12,13,14,0,1,2,3,4,5,6,7,8,9,10,11,12,13,14,0,1,2,3,4,5,6,7,8,9,10,11,12,13,14,0,1,2,3,4,5,6,7,8,9,10,11,12,13,14,0,1,2,3,4,5,6,7,8,9,10,11,12,13,14,0,1,2,3,4,5,6,7,8,9,10,11,12,13,14,0,1,2,3,4,5,6,7,8,9,10,11,12,13,14,0,1,2,3,4,5,6,7,8,9,10,11,12,13,14,0,1,2,3,4,5,6,7,8,9,10,11,12,13,14,0,1,2,3,4,5,6,7,8,9,10,11,12,13,14,0,1,2,3,4,5,6,7,8,9,10,11,12,13,14,0,1,2,3,4,5,6,7,8,9,10,11,12,13,14,0,1,2,3,4,5,6,7,8,9,10,11,12,13,14,0,1,2,3,4,5,6,7,8,9,10,11,12,13,14,0,1,2,3,4,5,6,7,8,9,10,11,12,13,14,0,1,2,3,4,5,6,7,8,9,10,11,12,13,14,0,1,2,3,4,5,6,7,8,9,10,11,12,13,14,0,1,2,3,4,5,6,7,8,9,10,11,12,13,14,0,1,2,3,4,5,6,7,8,9,10,11,12,13,14,0,1,2,3,4,5,6,7,8,9,10,11,12,13,14,0,1,2,3,4,5,6,7,8,9,10,11,12,13,14,0,1,2,3,4,5,6,7,8,9,10,11,12,13,14,0,1,2,3,4,5,6,7,8,9,10,11,12,13,14,0,1,2,3,4,5,6,7,8,9,10,11,12,13,14,0,1,2,3,4,5,6,7,8,9,10,11,12,13,14,0,1,2,3,4,5,6,7,8,9,10,11,12,13,14,0,1,2,3,4,5,6,7,8,9,10,11,12,13,14,0,1,2,3,4,5,6,7,8,9,10,11,12,13,14,0,1,2,3,4,5,6,7,8,9,10,11,12,13,14,0,1,2,3,4,5,6,7,8,9,10,11,12,13,14,0,1,2,3,4,5,6,7,8,9,10,11,12,13,14,0,1,2,3,4,5,6,7,8,9,10,11,12,13,14,0,1,2,3,4,5,6,7,8,9,10,11,12,13,14,0,1,2,3,4,5,6,7,8,9,10,11,12,13,14,0,1,2,3,4,5,6,7,8,9,10,11,12,13,14,0,1,2,3,4,5,6,7,8,9,10,11,12,13,14,0,1,2,3,4,5,6,7,8,9,10,11,12,13,14,0,1,2,3,4,5,6,7,8,9,10,11,12,13,14,0,1,2,3,4,5,6,7,8,9,10,11,12,13,14,0,1,2,3,4,5,6,7,8,9,10,11,12,13,14,0,1,2,3,4,5,6,7,8,9,10,11,12,13,14,0,1,2,3,4,5,6,7,8,9,10,11,12,13,14,0,1,2,3,4,5,6,7,8,9,10,11,12,13,14,0,1,2,3,4,5,6,7,8,9,10,11,12,13,14,0,1,2,3,4,5,6,7,8,9,10,11,12,13,14,0,1,2,3,4,5,6,7,8,9,10,11,12,13,14,0,1,2,3,4,5,6,7,8,9,10,11,12,13,14,0,1,2,3,4,5,6,7,8,9,10,11,12,13,14],"trees":[{"base_weights":[2.5403123E0,1.5135372E0,7.4965916E0,7.3691325E0,8.433401E-1,2.2498343E0,1.674208E0,7.4408326E0,5.9097033E0,1.0892673E-1,7.472429E0,1.4977711E0,-1.9467898E-2,7.4892087E0,5.573712E0,2.241975E0,5.653568E-1,-1.14446364E-1,6.0326133E0,2.2495658E0,5.480041E0,-1.3203807E-1,3.1188118E-1,2.2469738E0,4.8113206E-1,7.316971E0,2.9540842E0,1.952712E0,-2.0658201E-1,-1.6442677E-1,5.651882E0,7.185268E0,4.0817037E0,2.2167048E0,-2.9788047E-1,2.2134755E0,1.981132E-1,2.1720793E0,1.0699643E-1,-1.2542114E-1,1.4977711E0,1.825581E-1,-1.2547585E-1,-1.3143048E-1,1.9750783E0,-1.5550756E-1,2.2071633E0,2.0157997E-1,2.2400718E0,4.1369608E-1,-1.396835E-1],"categories":[],"categories_nodes":[],"categories_segments":[],"categories_sizes":[],"default_left":[0,0,0,0,0,0,0,0,0,0,0,0,0,0,0,0,0,0,0,0,0,0,0,0,0,0,0,0,0,0,0,0,0,0,0,0,0,0,0,0,0,0,0,0,0,0,0,0,0,0,0],"id":0,"left_children":[1,3,5,7,9,-1,11,13,15,17,19,-1,21,23,25,-1,27,29,31,-1,33,-1,-1,-1,-1,35,37,-1,39,41,43,45,47,-1,49,-1,-1,-1,-1,-1,-1,-1,-1,-1,-1,-1,-1,-1,-1,-1,-1],"loss_changes":[4.5684775E5,2.9184722E5,2.435E2,7.5521875E2,3.2488506E5,0E0,4.9780037E1,6.154375E2,3.0249668E3,7.949501E4,3.0534375E2,0E0,3.508793E0,1.734375E1,8.354004E2,0E0,3.8277368E2,1.6686627E4,4.8799375E3,0E0,9.9327515E2,0E0,0E0,0E0,0E0,4.0816406E1,8.509022E2,0E0,8.4055824E1,1.1261701E4,2.8259453E3,1.8198438E3,9.380683E3,0E0,7.1886244E0,0E0,0E0,0E0,0E0,0E0,0E0,0E0,0E0,0E0,0E0,0E0,0E0,0E0,0E0,0E0,0E0],"parents":[2147483647,0,0,1,1,2,2,3,3,4,4,6,6,7,7,8,8,9,9,10,10,12,12,13,13,14,14,16,16,17,17,18,18,20,20,25,25,26,26,28,28,29,29,30,30,31,31,32,32,34,34],"right_children":[2,4,6,8,10,-1,12,14,16,18,20,-1,22,24,26,-1,28,30,32,-1,34,-1,-1,-1,-1,36,38,-1,40,42,44,46,48,-1,50,-1,-1,-1,-1,-1,-1,-1,-1,-1,-1,-1,-1,-1,-1,-1,-1],"split_conditions":[2.3E1,1.2411E4,1E0,7.33E3,1E0,2.2498343E0,1.225E3,4.33E2,1E0,2.5E2,6.451613E3,1.4977711E0,2.081666E0,1.4957224E3,2.7789936E0,2.241975E0,9.411765E4,2.448149E2,2.896E4,2.2495658E0,1E0,-1.3203807E-1,3.1188118E-1,2.2469738E0,4.8113206E-1,1.503259E7,1.756E3,1.952712E0,1.4142135E0,2.309401E0,1.8869703E-1,5.3E1,4.015E3,2.2167048E0,1.3E1,2.2134755E0,1.981132E-1,2.1720793E0,1.0699643E-1,-1.2542114E-1,1.4977711E0,1.825581E-1,-1.2547585E-1,-1.3143048E-1,1.9750783E0,-1.5550756E-1,2.2071633E0,2.0157997E-1,2.2400718E0,4.1369608E-1,-1.396835E-1],"split_indices":[13,0,85,0,86,0,41,31,50,68,39,0,24,15,39,0,16,11,68,0,48,0,0,0,0,76,0,0,19,43,17,1,26,0,21,0,0,0,0,0,0,0,0,0,0,0,0,0,0,0,0],"split_type":[0,0,0,0,0,0,0,0,0,0,0,0,0,0,0,0,0,0,0,0,0,0,0,0,0,0,0,0,0,0,0,0,0,0,0,0,0,0,0,0,0,0,0,0,0,0,0,0,0,0,0],"sum_hessian":[8.977311E4,7.436788E4,1.5405228E4,7.636534E3,6.673135E4,1.5397388E4,7.8400006E0,7.275023E3,3.6151114E2,6.007668E4,6.654667E3,1.9911113E0,5.8488894E0,7.088356E3,1.8666669E2,2.793778E2,8.213334E1,5.7894547E4,2.1821335E3,6.565814E3,8.885334E1,4.604445E0,1.2444446E0,7.0872363E3,1.1200001E0,1.11004456E2,7.566223E1,8.586667E0,7.354668E1,5.7398016E4,4.965334E2,1.370009E3,8.121245E2,6.657778E1,2.2275557E1,1.0988445E2,1.1200001E0,2.7875557E1,4.778667E1,7.1555565E1,1.9911113E0,1.4188783E4,4.320923E4,6.595556E1,4.3057782E2,2.9866669E1,1.3401423E3,4.0519113E2,4.0693338E2,1.368889E0,2.0906668E1],"tree_param":{"num_deleted":"0","num_feature":"89","num_nodes":"51","size_leaf_vector":"1"}},{"base_weights":[-5.182757E-1,-5.2766776E-1,-2.9229537E-1,-3.845895E-1,-5.344319E-1,-1.6066723E-1,4.581997E0,-1.6065694E-1,2.8060288E-3,-5.3486663E-1,-3.965742E-1,6.5534606E0,-1.5739466E-1,5.3713284E0,-4.6462375E-1,-1.6060089E-1,-5.041278E-1,-5.2969754E-1,3.7240274E0,6.8835263E0,-1.3589568E-1,-1.5174808E-1,6.7856016E0,-1.6048232E-1,-3.0823806E-1,-1.6058394E-1,1.4745761E0,-1.6008186E-1,5.6603767E-2,-1.19102426E-1,1.7846714E0,2.096103E0,-9.932089E-2,-1.3203807E-1,2.1887147E0,-1.6012514E-1,3.4200934E-1,1.5710577E0,-1.490833E-1],"categories":[],"categories_nodes":[],"categories_segments":[],"categories_sizes":[],"default_left":[0,0,0,0,0,0,0,0,0,0,0,0,0,0,0,0,0,0,0,0,0,0,0,0,0,0,0,0,0,0,0,0,0,0,0,0,0,0,0],"id":1,"left_children":[1,3,5,7,9,-1,11,-1,13,15,17,19,-1,21,23,-1,25,27,29,31,-1,-1,33,-1,35,-1,37,-1,-1,-1,-1,-1,-1,-1,-1,-1,-1,-1,-1],"loss_changes":[1.9038281E2,8.321094E1,4.2527075E3,2.277091E2,4.720703E0,0E0,1.7198916E3,0E0,2.7449656E3,9.140625E-1,1.4601163E2,2.8775146E2,0E0,7.316658E2,1.0900589E1,0E0,7.794269E1,8.173599E-1,7.884993E1,9.0115234E1,0E0,0E0,2.637666E2,0E0,1.0331705E2,0E0,1.4847832E2,0E0,0E0,0E0,0E0,0E0,0E0,0E0,0E0,0E0,0E0,0E0,0E0],"parents":[2147483647,0,0,1,1,2,2,3,3,4,4,6,6,8,8,9,9,10,10,11,11,13,13,14,14,16,16,17,17,18,18,19,19,22,22,24,24,26,26],"right_children":[2,4,6,8,10,-1,12,-1,14,16,18,20,-1,22,24,-1,26,28,30,32,-1,-1,34,-1,36,-1,38,-1,-1,-1,-1,-1,-1,-1,-1,-1,-1,-1,-1],"split_conditions":[5.4E2,2.4E1,8.08E3,2.37E2,1.6572858E3,-1.6066723E-1,8.192E3,-1.6065694E-1,2.4E2,1.97E2,1.024E3,5.4058E4,-1.5739466E-1,2.56E2,1.756E3,-1.6060089E-1,8.08E3,5.14E2,5.24E2,1.0011817E7,-1.3589568E-1,-1.5174808E-1,1.756E3,-1.6048232E-1,1.783E3,-1.6058394E-1,8.192E3,-1.6008186E-1,5.6603767E-2,-1.19102426E-1,1.7846714E0,2.096103E0,-9.932089E-2,-1.3203807E-1,2.1887147E0,-1.6012514E-1,3.4200934E-1,1.5710577E0,-1.490833E-1],"split_indices":[31,36,1,67,10,0,1,0,67,31,68,0,0,68,0,0,1,68,1,20,0,0,0,0,1,0,1,0,0,0,0,0,0,0,0,0,0,0,0],"split_type":[0,0,0,0,0,0,0,0,0,0,0,0,0,0,0,0,0,0,0,0,0,0,0,0,0,0,0,0,0,0,0,0,0,0,0,0,0,0,0],"sum_hessian":[8.977311E4,8.618961E4,3.5835024E3,3.8933691E3,8.2296234E4,3.4140093E3,1.6949335E2,2.8014937E3,1.0918756E3,8.203466E4,2.6158224E2,1.2208001E2,4.7413338E1,8.661334E1,1.0052623E3,8.078399E4,1.2506667E3,2.5424002E2,7.3422227E0,1.16604454E2,5.475556E0,1.6924446E1,6.9688896E1,6.9178674E2,3.134756E2,1.2320001E3,1.8666668E1,2.5312003E2,1.1200001E0,2.8622224E0,4.4800005E0,1.1498668E2,1.617778E0,4.604445E0,6.508445E1,2.7178668E2,4.1688892E1,5.8488894E0,1.2817779E1],"tree_param":{"num_deleted":"0","num_feature":"89","num_nodes":"39","size_leaf_vector":"1"}},{"base_weights":[6.0515517E-1,-6.646371E-2,5.9913697E0,-5.3261656E-1,1.739354E0,7.4977117E0,-1.6062823E-1,-5.3321075E-1,-2.171437E-1,7.3440228E0,-5.3541076E-1,2.2497215E0,-9.287055E-2,-5.2675164E-1,-1.6071077E-1,-1.5931818E-1,5.09085E0,7.484815E0,-3.207936E-1,-3.5005835E-1,-1.6070047E-1,-5.2775174E-1,-7.175438E-2,1.7738589E0,3.8502672E-1,-1.3138686E-1,7.492562E0,-4.703009E-1,1.3904924E0,-1.5174808E-1,3.3962265E-1,-1.5036839E-1,-1.5996456E-1,-1.5561046E-1,4.2696097E-1,2.249191E0,-1.17717005E-1,4.7368422E-1,-1.5877818E-1],"categories":[],"categories_nodes":[],"categories_segments":[],"categories_sizes":[],"default_left":[0,0,0,0,0,0,0,0,0,0,0,0,0,0,0,0,0,0,0,0,0,0,0,0,0,0,0,0,0,0,0,0,0,0,0,0,0,0,0],"id":2,"left_children":[1,3,5,7,9,11,-1,13,15,17,19,-1,-1,21,-1,-1,23,25,27,29,-1,31,33,-1,-1,-1,35,37,-1,-1,-1,-1,-1,-1,-1,-1,-1,-1,-1],"loss_changes":[3.2475675E5,6.7194086E4,9.78585E4,1.1777344E1,2.0880905E5,8.81875E1,0E0,7.363281E-1,2.0426282E2,5.104922E3,3.684082E-1,0E0,0E0,8.010742E0,0E0,0E0,1.3846634E1,2.8821875E2,6.6080376E1,4.9694223E0,0E0,2.2905273E0,2.7432232E1,0E0,0E0,0E0,1.7634375E2,1.106052E1,0E0,0E0,0E0,0E0,0E0,0E0,0E0,0E0,0E0,0E0,0E0],"parents":[2147483647,0,0,1,1,2,2,3,3,4,4,5,5,7,7,8,8,9,9,10,10,13,13,16,16,17,17,18,18,19,19,21,21,22,22,26,26,27,27],"right_children":[2,4,6,8,10,12,-1,14,16,18,20,-1,-1,22,-1,-1,24,26,28,30,-1,32,34,-1,-1,-1,36,38,-1,-1,-1,-1,-1,-1,-1,-1,-1,-1,-1],"split_conditions":[1.1601E4,3E0,7.6E1,3.26E2,3.7E1,9E0,-1.6062823E-1,2.4E1,1E0,1E0,1.0682552E0,2.2497215E0,-9.287055E-2,6.878695E6,-1.6071077E-1,-1.5931818E-1,2.88E2,2.56E2,6.888889E0,6.3416E4,-1.6070047E-1,9E0,5.06466E6,1.7738589E0,3.8502672E-1,-1.3138686E-1,2.57E2,2.01E2,1.3904924E0,-1.5174808E-1,3.3962265E-1,-1.5036839E-1,-1.5996456E-1,-1.5561046E-1,4.2696097E-1,2.249191E0,-1.17717005E-1,4.7368422E-1,-1.5877818E-1],"split_indices":[7,69,6,13,6,5,0,70,85,5,16,0,0,21,0,0,22,67,10,0,0,54,75,0,0,0,67,3,0,0,0,0,0,0,0,0,0,0,0],"split_type":[0,0,0,0,0,0,0,0,0,0,0,0,0,0,0,0,0,0,0,0,0,0,0,0,0,0,0,0,0,0,0,0,0,0,0,0,0,0,0],"sum_hessian":[8.977311E4,7.982104E4,9.952072E3,6.3444273E4,1.6376766E4,8.0857783E3,1.8662935E3,6.332431E4,1.19964455E2,4.7272715E3,1.1649494E4,8.0844097E3,1.368889E0,1.768754E4,4.563677E4,1.1411556E2,5.8488894E0,4.642027E3,8.524445E1,1.8044445E1,1.163145E4,1.7648588E4,3.8951115E1,4.355556E0,1.4933335E0,4.4800005E0,4.637547E3,8.362667E1,1.617778E0,1.6924446E1,1.1200001E0,3.0302224E3,1.4618365E4,3.0488892E1,8.462223E0,4.634809E3,2.737778E0,1.617778E0,8.2008896E1],"tree_param":{"num_deleted":"0","num_feature":"89","num_nodes":"39","size_leaf_vector":"1"}},{"base_weights":[-4.4398922E-1,-4.6407077E-1,4.648973E0,-5.0951934E-1,1.6675196E0,-1.5932567E-1,7.149074E0,-5.126522E-1,1.1926035E0,7.42346E0,-5.3088003E-1,-1.449717E-1,2.23754E0,-5.2732384E-1,-1.531416E-1,-1.5944445E-1,2.1867898E0,2.2432694E0,-1.2487612E-1,1.2128417E0,-1.6059518E-1,-5.292012E-1,2.2418863E-1,-5.339066E-1,3.0256221E0,-9.932089E-2,7.641509E-1,-1.6042396E-1,-1.397347E-1,5.7562095E-1,-1.5756628E-1,-1.6066033E-1,-1.4129022E-1,2.2197292E0,-1.4671467E-1],"categories":[],"categories_nodes":[],"categories_segments":[],"categories_sizes":[],"default_left":[0,0,0,0,0,0,0,0,0,0,0,0,0,0,0,0,0,0,0,0,0,0,0,0,0,0,0,0,0,0,0,0,0,0,0],"id":3,"left_children":[1,3,5,7,9,-1,11,13,15,17,19,-1,-1,21,23,-1,-1,-1,-1,25,-1,27,29,31,33,-1,-1,-1,-1,-1,-1,-1,-1,-1,-1],"loss_changes":[9.183771E3,8.663887E3,4.5712383E3,4.6751367E2,2.3629258E4,0E0,5.6547656E2,4.609004E2,1.6978628E3,2.2201562E2,1.1109711E1,0E0,0E0,1.1858594E2,4.1509785E3,0E0,0E0,0E0,0E0,8.5434265E0,0E0,2.9207031E1,2.6761557E2,6.1584473E-2,5.6428457E3,0E0,0E0,0E0,0E0,0E0,0E0,0E0,0E0,0E0,0E0],"parents":[2147483647,0,0,1,1,2,2,3,3,4,4,6,6,7,7,8,8,9,9,10,10,13,13,14,14,19,19,21,21,22,22,23,23,24,24],"right_children":[2,4,6,8,10,-1,12,14,16,18,20,-1,-1,22,24,-1,-1,-1,-1,26,-1,28,30,32,34,-1,-1,-1,-1,-1,-1,-1,-1,-1,-1],"split_conditions":[6.878695E6,1.1632E4,5.06466E6,3.4E7,9E0,-1.5932567E-1,6.4E1,5.4E2,2E2,1.2567E4,1E1,-1.449717E-1,2.23754E0,1.000057E6,3.525E3,-1.5944445E-1,2.1867898E0,2.2432694E0,-1.2487612E-1,1.995757E6,-1.6059518E-1,1.1597188E6,2E0,3.436E3,3.71E3,-9.932089E-2,7.641509E-1,-1.6042396E-1,-1.397347E-1,5.7562095E-1,-1.5756628E-1,-1.6066033E-1,-1.4129022E-1,2.2197292E0,-1.4671467E-1],"split_indices":[21,7,75,18,5,0,36,31,6,7,5,0,0,26,12,0,0,0,0,3,0,28,41,6,7,0,0,0,0,0,0,0,0,0,0],"split_type":[0,0,0,0,0,0,0,0,0,0,0,0,0,0,0,0,0,0,0,0,0,0,0,0,0,0,0,0,0,0,0,0,0,0,0],"sum_hessian":[8.977311E4,8.942143E4,3.5168002E2,8.755538E4,1.8660446E3,1.14737785E2,2.3694225E2,8.739523E4,1.6016002E2,5.150756E2,1.350969E3,9.20889E0,2.2773335E2,8.396802E4,3.4272002E3,1.2556445E2,3.459556E1,5.1159116E2,3.4844446E0,2.737778E0,1.3482312E3,8.3759086E4,2.0894225E2,3.0613335E3,3.658667E2,1.617778E0,1.1200001E0,7.7017305E4,6.7417783E3,6.3591118E1,1.4535112E2,2.9768357E3,8.449779E1,1.6252446E2,2.0334224E2],"tree_param":{"num_deleted":"0","num_feature":"89","num_nodes":"35","size_leaf_vector":"1"}},{"base_weights":[1.5149721E0,4.8424652E-1,6.949201E0,3.8536055E0,-1.6384444E-1,-2.3334724E-1,7.421922E0,-1.6067144E-1,5.8074684E0,-5.332785E-1,1.6893017E0,-3.1246036E-1,2.0240963E0,-3.8120994E-1,7.4916973E0,7.240899E0,-2.0623937E-1,-5.336005E-1,2.8981721E0,5.5566077E0,-5.3503525E-1,-4.196614E-1,4.5003476E0,-1.5930906E-1,2.272727E0,-1.490833E-1,2.2498307E0,-1.592936E-1,7.37123E0,-4.112423E-1,7.0836244E0,-1.6064246E-1,-2.929732E-1,1.5278174E0,-1.06983654E-1,6.869014E0,1.3772438E0,-1.606453E-1,3.3962265E-1,9.0145004E-1,-5.2124166E-1,2.07621E0,-1.3846155E-1,1.5555556E0,-1.23853214E-1,2.2241004E0,-1.5633701E-1,1.5990971E0,-1.3518368E-1,-9.287055E-2,2.1977499E0,1.4712169E0,-1.6030508E-1,-8.601713E-2,2.1964781E0,2.2369506E0,-1.5492873E-1,-1.5754147E-1,2.061733E0,-1.6051228E-1,1.2272727E0],"categories":[],"categories_nodes":[],"categories_segments":[],"categories_sizes":[],"default_left":[0,0,0,0,0,0,0,0,0,0,0,0,0,0,0,0,0,0,0,0,0,0,0,0,0,0,0,0,0,0,0,0,0,0,0,0,0,0,0,0,0,0,0,0,0,0,0,0,0,0,0,0,0,0,0,0,0,0,0,0,0],"id":4,"left_children":[1,3,5,7,9,11,13,-1,15,17,19,21,-1,23,25,27,29,31,33,35,37,39,41,-1,43,-1,-1,-1,45,47,49,-1,51,-1,-1,53,55,-1,-1,57,59,-1,-1,-1,-1,-1,-1,-1,-1,-1,-1,-1,-1,-1,-1,-1,-1,-1,-1,-1,-1],"loss_changes":[5.028392E5,1.6478386E5,4.8598875E4,1.0440147E5,4.333001E4,4.907291E2,7.3144375E3,0E0,7.261641E4,5.9851562E1,9.049947E4,4.5377017E2,0E0,4.8908146E1,8.26625E2,6.8942188E3,2.4274785E3,2.3641602E1,3.8292E1,2.106114E4,5.6073E0,1.1556891E2,2.334032E2,0E0,5.376331E1,0E0,0E0,0E0,2.2445938E3,3.5931686E2,8.183032E1,0E0,5.170038E2,0E0,0E0,9.469031E3,1.0586668E4,0E0,0E0,5.2836475E2,5.2917816E1,0E0,0E0,0E0,0E0,0E0,0E0,0E0,0E0,0E0,0E0,0E0,0E0,0E0,0E0,0E0,0E0,0E0,0E0,0E0,0E0],"parents":[2147483647,0,0,1,1,2,2,3,3,4,4,5,5,6,6,8,8,9,9,10,10,11,11,13,13,14,14,15,15,16,16,17,17,18,18,19,19,20,20,21,21,22,22,24,24,28,28,29,29,30,30,32,32,35,35,36,36,39,39,40,40],"right_children":[2,4,6,8,10,12,14,-1,16,18,20,22,-1,24,26,28,30,32,34,36,38,40,42,-1,44,-1,-1,-1,46,48,50,-1,52,-1,-1,54,56,-1,-1,58,60,-1,-1,-1,-1,-1,-1,-1,-1,-1,-1,-1,-1,-1,-1,-1,-1,-1,-1,-1,-1],"split_conditions":[8.11E7,3E0,1.36E2,1E0,2.35E2,1E0,1.3025323E3,-1.6067144E-1,3.916375E3,1.01E8,2.36E2,2.2E2,2.0240963E0,1.0670275E3,6.4E1,6.4E1,1.32E7,1E0,1E0,9.9085494E5,1E8,2E0,4.09E2,-1.5930906E-1,1.4937E4,-1.490833E-1,2.2498307E0,-1.592936E-1,2.92E4,3E0,5.06466E6,-1.6064246E-1,1.23E2,1.5278174E0,-1.06983654E-1,1E0,1E0,-1.606453E-1,3.3962265E-1,3E0,1.0858182E3,2.07621E0,-1.3846155E-1,1.5555556E0,-1.23853214E-1,2.2241004E0,-1.5633701E-1,1.5990971E0,-1.3518368E-1,-9.287055E-2,2.1977499E0,1.4712169E0,-1.6030508E-1,-8.601713E-2,2.1964781E0,2.2369506E0,-1.5492873E-1,-1.5754147E-1,2.061733E0,-1.6051228E-1,1.2272727E0],"split_indices":[75,54,37,85,68,45,15,0,18,77,68,36,0,15,6,36,19,45,5,29,30,42,6,0,71,0,0,0,67,21,75,0,1,0,0,69,48,0,0,4,42,0,0,0,0,0,0,0,0,0,0,0,0,0,0,0,0,0,0,0,0],"split_type":[0,0,0,0,0,0,0,0,0,0,0,0,0,0,0,0,0,0,0,0,0,0,0,0,0,0,0,0,0,0,0,0,0,0,0,0,0,0,0,0,0,0,0,0,0,0,0,0,0,0,0,0,0,0,0,0,0,0,0,0,0],"sum_hessian":[8.977311E4,7.546125E4,1.4311859E4,1.2172534E4,6.3288715E4,8.838045E2,1.3428055E4,3.7497603E3,8.422774E3,5.276955E4,1.0519165E4,8.7484454E2,8.960001E0,1.189689E2,1.3309086E4,6.801387E3,1.6213868E3,5.2765445E4,4.106667E0,3.8404802E3,6.678685E3,8.566756E2,1.816889E1,1.133689E2,5.6000004E0,1.2817779E1,1.3296268E4,1.1212445E2,6.6892627E3,1.5779557E3,4.3431114E1,5.2356395E4,4.0904892E2,2.1155558E0,1.9911113E0,2.9222046E3,9.1827563E2,6.677565E3,1.1200001E0,6.060445E1,7.9607117E2,1.1946668E1,6.222223E0,2.2400002E0,3.3600004E0,6.6535474E3,3.5715557E1,9.831112E0,1.5681246E3,1.368889E0,4.2062225E1,1.729778E1,3.9175113E2,1.738489E2,2.7483557E3,2.1740446E2,7.0087115E2,4.965334E1,1.0951112E1,7.945778E2,1.4933335E0],"tree_param":{"num_deleted":"0","num_feature":"89","num_nodes":"61","size_leaf_vector":"1"}},{"base_weights":[-4.8670754E-1,-5.091536E-1,6.2225204E0,-5.176213E-1,5.278976E0,7.207275E0,-1.5660185E-1,-5.2307695E-1,3.40975E0,-1.5624614E-1,2.2202587E0,2.2328484E0,-1.4227435E-1,-5.2624965E-1,2.3401911E0,-1.5817223E-1,2.2136235E0,-5.269856E-1,8.5288924E-1,6.281501E0,-4.9236378E-1,-1.5856163E-1,2.2610873E-2,2.0057886E0,-1.566663E-1,-1.2845674E-1,2.1018507E0,-8.028552E-3,-1.57766E-1],"categories":[],"categories_nodes":[],"categories_segments":[],"categories_sizes":[],"default_left":[0,0,0,0,0,0,0,0,0,0,0,0,0,0,0,0,0,0,0,0,0,0,0,0,0,0,0,0,0],"id":5,"left_children":[1,3,5,7,9,11,-1,13,15,-1,-1,-1,-1,17,19,-1,-1,21,23,25,27,-1,-1,-1,-1,-1,-1,-1,-1],"loss_changes":[1.3522758E4,4.388119E3,1.9924072E3,1.9161602E3,1.6134912E3,4.7639648E2,0E0,8.1174414E2,1.9426824E3,0E0,0E0,0E0,0E0,9.09082E1,1.107632E3,0E0,0E0,8.337891E1,3.878279E2,2.045149E2,8.9890957E-1,0E0,0E0,0E0,0E0,0E0,0E0,0E0,0E0],"parents":[2147483647,0,0,1,1,2,2,3,3,4,4,5,5,7,7,8,8,13,13,14,14,17,17,18,18,19,19,20,20],"right_children":[2,4,6,8,10,12,-1,14,16,-1,-1,-1,-1,18,20,-1,-1,22,24,26,28,-1,-1,-1,-1,-1,-1,-1,-1],"split_conditions":[7.005624E6,5.67E7,1.11573376E-1,3.51E2,1.6852374E2,1.23E2,-1.5660185E-1,4.972862E6,1E0,-1.5624614E-1,2.2202587E0,2.2328484E0,-1.4227435E-1,1.87E2,1.984541E-1,-1.5817223E-1,2.2136235E0,3.5886272E6,1.7E1,1.0527906E-1,6.688889E6,-1.5856163E-1,2.2610873E-2,2.0057886E0,-1.566663E-1,-1.2845674E-1,2.1018507E0,-8.028552E-3,-1.57766E-1],"split_indices":[74,29,17,9,11,1,0,71,85,0,0,0,0,40,17,0,0,72,2,38,20,0,0,0,0,0,0,0,0],"split_type":[0,0,0,0,0,0,0,0,0,0,0,0,0,0,0,0,0,0,0,0,0,0,0,0,0,0,0,0,0],"sum_hessian":[8.977311E4,8.9474695E4,2.9841782E2,8.93449E4,1.2979556E2,2.603378E2,3.808E1,8.922182E4,1.2307557E2,3.496889E1,9.4826675E1,2.5262224E2,7.715556E0,8.912388E4,9.793778E1,6.222223E1,6.085334E1,8.907697E4,4.6915558E1,4.0444447E1,5.749334E1,8.884799E4,2.289778E2,8.213334E0,3.8702225E1,3.9822226E0,3.6462227E1,3.9822226E0,5.3511116E1],"tree_param":{"num_deleted":"0","num_feature":"89","num_nodes":"29","size_leaf_vector":"1"}},{"base_weights":[-4.8405644E-1,-4.9927896E-1,5.3972964E0,-5.084934E-1,4.0479283E0,-1.5743679E-1,6.9477954E0,-5.2298045E-1,7.0689666E-1,-1.5865138E-1,2.2284253E0,2.236927E0,-1.480574E-1,-5.3006655E-1,-2.626185E-1,3.921223E0,-1.5892705E-1,-5.311762E-1,1.8520358E-1,4.714337E0,-5.0859755E-1,-5.160846E-1,2.2144418E0,-1.5947141E-1,3.232302E-1,2.0451624E0,-1.4715277E-1,-1.5585984E-1,2.0602963E0,-1.603671E-1,2.5428E-1,-1.5705615E-1,-5.1941242E-2],"categories":[],"categories_nodes":[],"categories_segments":[],"categories_sizes":[],"default_left":[0,0,0,0,0,0,0,0,0,0,0,0,0,0,0,0,0,0,0,0,0,0,0,0,0,0,0,0,0,0,0,0,0],"id":6,"left_children":[1,3,5,7,9,-1,11,13,15,-1,-1,-1,-1,17,19,21,-1,23,25,27,29,31,-1,-1,-1,-1,-1,-1,-1,-1,-1,-1,-1],"loss_changes":[8.040086E3,3.7539355E3,2.1324858E3,1.5738203E3,2.8070566E3,0E0,6.993711E2,1.6278711E2,4.1879727E3,0E0,0E0,0E0,0E0,6.833203E1,2.8692925E3,4.4979478E3,0E0,5.5132812E1,6.034239E2,1.2476458E3,7.904773E1,2.3878098E-1,0E0,0E0,0E0,0E0,0E0,0E0,0E0,0E0,0E0,0E0,0E0],"parents":[2147483647,0,0,1,1,2,2,3,3,4,4,6,6,7,7,8,8,13,13,14,14,15,15,17,17,18,18,19,19,20,20,21,21],"right_children":[2,4,6,8,10,-1,12,14,16,-1,-1,-1,-1,18,20,22,-1,24,26,28,30,32,-1,-1,-1,-1,-1,-1,-1,-1,-1,-1,-1],"split_conditions":[4.4173555E6,1E8,1.63E7,5.29028E5,1E0,-1.5743679E-1,2.791E3,1E0,1.5047155E6,-1.5865138E-1,2.2284253E0,2.236927E0,-1.480574E-1,5.67E7,1.2E1,2.4132367E5,-1.5892705E-1,6.3E7,4.8714287E1,5.3517E4,3.3410556E2,3.6E1,2.2144418E0,-1.5947141E-1,3.232302E-1,2.0451624E0,-1.4715277E-1,-1.5585984E-1,2.0602963E0,-1.603671E-1,2.5428E-1,-1.5705615E-1,-5.1941242E-2],"split_indices":[72,28,28,21,32,0,6,32,18,0,0,0,0,29,6,19,0,76,54,0,15,70,0,0,0,0,0,0,0,0,0,0,0],"split_type":[0,0,0,0,0,0,0,0,0,0,0,0,0,0,0,0,0,0,0,0,0,0,0,0,0,0,0,0,0,0,0,0,0],"sum_hessian":[8.977311E4,8.9542266E4,2.3084447E2,8.936207E4,1.8019557E2,4.803556E1,1.828089E2,8.8310016E4,1.0520535E3,7.690667E1,1.03288895E2,1.7111113E2,1.1697779E1,8.596922E4,2.3408003E3,2.916978E2,7.603556E2,8.583631E4,1.3290668E2,1.0938667E2,2.2314136E3,1.281778E2,1.6352002E2,8.58159E4,2.040889E1,1.144889E1,1.2145779E2,3.210667E1,7.728001E1,2.190098E3,4.131556E1,1.2494223E2,3.235556E0],"tree_param":{"num_deleted":"0","num_feature":"89","num_nodes":"33","size_leaf_vector":"1"}},{"base_weights":[-4.649975E-1,-1.607091E-1,6.536766E0,-1.7915797E-1,7.1353483E0,-4.445409E-1,1.4875149E0,2.2467628E0,-1.5640995E-1,-1.582213E-1,2.5959975E-1,7.641509E-1,-1.3807139E-1],"categories":[],"categories_nodes":[],"categories_segments":[],"categories_sizes":[],"default_left":[0,0,0,0,0,0,0,0,0,0,0,0,0],"id":7,"left_children":[1,-1,3,5,7,9,-1,-1,-1,-1,11,-1,-1],"loss_changes":[4.4443586E4,0E0,3.609254E3,1.0367262E2,2.2366602E3,4.319522E0,0E0,0E0,0E0,0E0,1.4704347E1,0E0,0E0],"parents":[2147483647,0,0,2,2,3,3,4,4,5,5,10,10],"right_children":[2,-1,4,6,8,10,-1,-1,-1,-1,12,-1,-1],"split_conditions":[1E0,-1.607091E-1,6.888889E0,3.5182438E4,1E1,6.009E4,1.4875149E0,2.2467628E0,-1.5640995E-1,-1.582213E-1,6.0246E4,7.641509E-1,-1.3807139E-1],"split_indices":[84,0,10,23,4,0,0,0,0,0,0,0,0],"split_type":[0,0,0,0,0,0,0,0,0,0,0,0,0],"sum_hessian":[8.977311E4,8.887661E4,8.9649786E2,7.3422226E1,8.230756E2,7.068445E1,2.737778E0,7.8673785E2,3.633778E1,6.346667E1,7.217778E0,1.1200001E0,6.0977783E0],"tree_param":{"num_deleted":"0","num_feature":"89","num_nodes":"13","size_leaf_vector":"1"}},{"base_weights":[-5.3560805E-1,-1.607125E-1,-4.9152473E-1,-1.5996563E-1,1.1886792E0],"categories":[],"categories_nodes":[],"categories_segments":[],"categories_sizes":[],"default_left":[0,0,0,0,0],"id":8,"left_children":[1,-1,3,-1,-1],"loss_changes":[1.3476562E-1,0E0,4.2184402E1,0E0,0E0],"parents":[2147483647,0,0,2,2],"right_children":[2,-1,4,-1,-1],"split_conditions":[4.4E1,-1.607125E-1,2.1194802E3,-1.5996563E-1,1.1886792E0],"split_indices":[69,0,15,0,0],"split_type":[0,0,0,0,0],"sum_hessian":[8.977311E4,8.955832E4,2.1479112E2,2.1367113E2,1.1200001E0],"tree_param":{"num_deleted":"0","num_feature":"89","num_nodes":"5","size_leaf_vector":"1"}},{"base_weights":[-5.3538525E-1,-5.354297E-1,-4.0694004E-1,-1.6069217E-1,-5.1757854E-1,-1.5600157E-1,4.8113206E-1,-1.6055754E-1,-1.6637258E-1,-4.4617003E-1,1.2777778E0,-1.5744509E-1,3.8502672E-1],"categories":[],"categories_nodes":[],"categories_segments":[],"categories_sizes":[],"default_left":[0,0,0,0,0,0,0,0,0,0,0,0,0],"id":9,"left_children":[1,3,5,-1,7,-1,-1,-1,9,11,-1,-1,-1],"loss_changes":[2.9101562E-1,6.25E-2,8.841448E0,0E0,6.5743713E0,0E0,0E0,0E0,6.739714E1,7.5637846E0,0E0,0E0,0E0],"parents":[2147483647,0,0,1,1,2,2,4,4,8,8,9,9],"right_children":[2,4,6,-1,8,-1,-1,-1,10,12,-1,-1,-1],"split_conditions":[1.2E8,3.436E3,2.7740713E1,-1.6069217E-1,1E0,-1.5600157E-1,4.8113206E-1,-1.6055754E-1,1E0,2.7230058E6,1.2777778E0,-1.5744509E-1,3.8502672E-1],"split_indices":[27,6,17,0,87,0,0,0,53,71,0,0,0],"split_type":[0,0,0,0,0,0,0,0,0,0,0,0,0],"sum_hessian":[8.977311E4,8.973889E4,3.4222225E1,8.8662695E4,1.0761957E3,3.3102226E1,1.1200001E0,1.0243024E3,5.1893337E1,4.965334E1,2.2400002E0,4.8160004E1,1.4933335E0],"tree_param":{"num_deleted":"0","num_feature":"89","num_nodes":"13","size_leaf_vector":"1"}},{"base_weights":[8.7943244E-1,-3.6975217E-1,5.7652016E0,-4.924018E-1,1.7664108E0,-1.604086E-1,7.240762E0,-5.298568E-1,2.9642409E-2,-1.6065615E-1,7.4521837E0,2.2474804E0,-1.6036779E-1,-5.3281134E-1,-3.246197E-1,-1.6052197E-1,3.930054E0,2.246364E0,-1.33829E-1,-5.339505E-1,-4.9406874E-1,-5.2022016E-1,6.4511867E0,2.2390163E0,-3.6030406E-1,-1.5844434E-1,-1.6067268E-1,1.7369465E0,-1.5524316E-1,-1.6018496E-1,7.2717726E-1,-1.1294584E-1,2.151756E0,-1.3190398E-1,1.1044385E0],"categories":[],"categories_nodes":[],"categories_segments":[],"categories_sizes":[],"default_left":[0,0,0,0,0,0,0,0,0,0,0,0,0,0,0,0,0,0,0,0,0,0,0,0,0,0,0,0,0,0,0,0,0,0,0],"id":10,"left_children":[1,3,5,7,9,-1,11,13,15,-1,17,-1,-1,19,21,-1,23,-1,-1,25,27,29,31,-1,33,-1,-1,-1,-1,-1,-1,-1,-1,-1,-1],"loss_changes":[5.4791394E5,1.8732652E4,1.6992931E5,1.3220859E3,5.081652E4,0E0,2.889025E4,3.808008E1,9.974026E3,0E0,3.1879297E2,0E0,0E0,2.4824219E0,1.1933503E3,0E0,8.684369E3,0E0,0E0,2.8710938E-1,2.6626346E2,3.6607193E1,1.2713953E2,0E0,8.4901764E1,0E0,0E0,0E0,0E0,0E0,0E0,0E0,0E0,0E0,0E0],"parents":[2147483647,0,0,1,1,2,2,3,3,4,4,6,6,7,7,8,8,10,10,13,13,14,14,16,16,19,19,20,20,21,21,22,22,24,24],"right_children":[2,4,6,8,10,-1,12,14,16,-1,18,-1,-1,20,22,-1,24,-1,-1,26,28,30,32,-1,34,-1,-1,-1,-1,-1,-1,-1,-1,-1,-1],"split_conditions":[1.2987013E4,1.010101E4,1E0,4.040404E2,1E0,-1.604086E-1,2E0,1.466007E7,1E0,-1.6065615E-1,1E2,2.2474804E0,-1.6036779E-1,1.349E3,5.24E2,-1.6052197E-1,2E0,2.246364E0,-1.33829E-1,2E1,5.3E1,3.6E1,1.23E2,2.2390163E0,8.36E2,-1.5844434E-1,-1.6067268E-1,1.7369465E0,-1.5524316E-1,-1.6018496E-1,7.2717726E-1,-1.1294584E-1,2.151756E0,-1.3190398E-1,1.1044385E0],"split_indices":[39,39,48,39,48,0,4,31,48,0,3,0,0,31,1,0,5,0,0,6,1,70,0,0,31,0,0,0,0,0,0,0,0,0,0],"split_type":[0,0,0,0,0,0,0,0,0,0,0,0,0,0,0,0,0,0,0,0,0,0,0,0,0,0,0,0,0,0,0,0,0,0,0],"sum_hessian":[8.977311E4,7.149446E4,1.827865E4,6.7613164E4,3.881298E3,3.4688892E3,1.4809762E4,6.3086867E4,4.526294E3,2.7634136E3,1.1178845E3,1.4346952E4,4.6280893E2,6.2189996E4,8.968712E2,3.954596E3,5.716978E2,1.1129067E3,4.9777784E0,6.040123E4,1.7887646E3,8.726045E2,2.4266668E1,3.1310223E2,2.5859558E2,1.3286063E4,4.7115168E4,5.724445E0,1.7830402E3,8.6936896E2,3.235556E0,2.3644447E0,2.1902224E1,2.544889E2,4.106667E0],"tree_param":{"num_deleted":"0","num_feature":"89","num_nodes":"35","size_leaf_vector":"1"}},{"base_weights":[-4.8316532E-1,-1.6071248E-1,5.5442457E0,-3.008729E-1,7.2046194E0,3.2068114E0,-1.5972696E-1,2.2461407E0,-1.535009E-1,5.2772465E0,-1.2763038E-1,1.7821781E-1,1.8572536E0],"categories":[],"categories_nodes":[],"categories_segments":[],"categories_sizes":[],"default_left":[0,0,0,0,0,0,0,0,0,0,0,0,0],"id":11,"left_children":[1,-1,3,5,7,9,-1,-1,-1,11,-1,-1,-1],"loss_changes":[2.843424E4,0E0,7.532494E3,1.4190126E2,1.3212051E3,8.369865E1,0E0,0E0,0E0,2.615805E1,0E0,0E0,0E0],"parents":[2147483647,0,0,2,2,3,3,4,4,5,5,9,9],"right_children":[2,-1,4,6,8,10,-1,-1,-1,12,-1,-1,-1],"split_conditions":[1E0,-1.6071248E-1,2.46E2,2.29E2,2.85E2,4E0,-1.5972696E-1,2.2461407E0,-1.535009E-1,5.2E1,-1.2763038E-1,1.7821781E-1,1.8572536E0],"split_indices":[88,0,68,68,68,4,0,0,0,36,0,0,0],"split_type":[0,0,0,0,0,0,0,0,0,0,0,0,0],"sum_hessian":[8.977311E4,8.8998195E4,7.7491565E2,1.716089E2,6.033067E2,9.831112E0,1.6177779E2,5.8202673E2,2.1280003E1,5.973334E0,3.857778E0,1.2444446E0,4.7288895E0],"tree_param":{"num_deleted":"0","num_feature":"89","num_nodes":"13","size_leaf_vector":"1"}},{"base_weights":[-5.222746E-1,-5.3298473E-1,-5.6496885E-2,-5.336294E-1,-2.5449136E-1,1.8513765E0,-1.6061476E-1,-5.349789E-1,-5.043055E-1,-5.224832E-1,3.447561E0,-2.1152903E-1,4.0125475E0,-1.6070858E-1,-5.147792E-1,-1.6066717E-1,-2.715496E-1,-5.27654E-1,5.6603767E-2,1.9631728E0,-1.3807139E-1,-4.6087718E-1,7.923264E-1,4.36359E0,-1.501317E-1,-1.6039413E-1,-4.2237157E-1,-5.299697E-1,5.542372E0,-1.5984464E-1,-3.0733642E-1,-1.566055E-1,-3.3109972E-1,2.399577E0,-1.5398923E-1,5.5959406E0,2.4023113E0,1.2913327E0,-1.433861E-1,1.981132E-1,-1.6034928E-1,1.7991254E0,-9.287055E-2,-1.3203807E-1,5.6603767E-2,-1.5578574E-1,-2.0994084E-2,-1.4227435E-1,1.3262594E0,6.1440355E-1,2.0362444E0,2.4453068E-1,1.0589908E0],"categories":[],"categories_nodes":[],"categories_segments":[],"categories_sizes":[],"default_left":[0,0,0,0,0,0,0,0,0,0,0,0,0,0,0,0,0,0,0,0,0,0,0,0,0,0,0,0,0,0,0,0,0,0,0,0,0,0,0,0,0,0,0,0,0,0,0,0,0,0,0,0,0],"id":12,"left_children":[1,3,5,7,9,11,-1,13,15,17,19,21,23,-1,25,-1,27,29,-1,-1,-1,31,33,35,-1,-1,37,39,41,-1,43,-1,45,47,-1,49,51,-1,-1,-1,-1,-1,-1,-1,-1,-1,-1,-1,-1,-1,-1,-1,-1],"loss_changes":[4.478125E2,1.5619141E1,1.8456487E3,3.1953125E0,2.0478024E2,1.8078839E3,0E0,9.3359375E-1,2.800116E1,8.042984E-1,1.7171133E2,5.2510757E1,3.158579E2,0E0,5.0828857E0,0E0,6.941706E2,5.290985E-2,0E0,0E0,0E0,1.1562805E0,8.898482E1,4.3081958E2,0E0,0E0,1.3774191E2,2.7320557E0,5.4188477E1,0E0,5.259559E-1,0E0,2.7340097E0,1.1199958E2,0E0,4.601245E2,1.2720752E2,0E0,0E0,0E0,0E0,0E0,0E0,0E0,0E0,0E0,0E0,0E0,0E0,0E0,0E0,0E0,0E0],"parents":[2147483647,0,0,1,1,2,2,3,3,4,4,5,5,7,7,8,8,9,9,10,10,11,11,12,12,14,14,16,16,17,17,21,21,22,22,23,23,26,26,27,27,28,28,30,30,32,32,33,33,35,35,36,36],"right_children":[2,4,6,8,10,12,-1,14,16,18,20,22,24,-1,26,-1,28,30,-1,-1,-1,32,34,36,-1,-1,38,40,42,-1,44,-1,46,48,-1,50,52,-1,-1,-1,-1,-1,-1,-1,-1,-1,-1,-1,-1,-1,-1,-1,-1],"split_conditions":[2.896E4,4.4E1,2.92E4,1E0,6.29E2,9E1,-1.6061476E-1,8.36E2,1E0,4.8E2,4.2564256E7,6.7E1,2E0,-1.6070858E-1,1.907072E2,-1.6066717E-1,9.389671E3,5.755E3,5.6603767E-2,1.9631728E0,-1.3807139E-1,3.9105692E6,1.999E3,5.2237E4,-1.501317E-1,-1.6039413E-1,3.85E2,1.15E2,1.0606602E1,-1.5984464E-1,1.10333336E2,-1.566055E-1,6.659718E-1,6.29E2,-1.5398923E-1,3.6188E4,5.420533E6,1.2913327E0,-1.433861E-1,1.981132E-1,-1.6034928E-1,1.7991254E0,-9.287055E-2,-1.3203807E-1,5.6603767E-2,-1.5578574E-1,-2.0994084E-2,-1.4227435E-1,1.3262594E0,6.1440355E-1,2.0362444E0,2.4453068E-1,1.0589908E0],"split_indices":[68,69,68,50,26,21,0,31,85,26,3,21,6,0,11,0,38,12,0,0,0,24,26,0,0,0,6,20,19,0,11,0,17,26,0,0,22,0,0,0,0,0,0,0,0,0,0,0,0,0,0,0,0],"split_type":[0,0,0,0,0,0,0,0,0,0,0,0,0,0,0,0,0,0,0,0,0,0,0,0,0,0,0,0,0,0,0,0,0,0,0,0,0,0,0,0,0,0,0,0,0,0,0,0,0,0,0,0,0],"sum_hessian":[8.977311E4,8.775512E4,2.0179913E3,8.755153E4,2.0359113E2,4.0432004E2,1.6136713E3,8.368305E4,3.8684802E3,1.9064891E2,1.2942224E1,2.0732446E2,1.9699557E2,8.079245E4,2.8905957E3,3.4094048E3,4.590756E2,1.895289E2,1.1200001E0,6.844445E0,6.0977783E0,1.6650668E2,4.081778E1,1.828089E2,1.4186667E1,2.375147E3,5.154489E2,4.4040894E2,1.8666668E1,1.8380446E2,5.724445E0,1.111289E2,5.537778E1,1.7920002E1,2.289778E1,1.111289E2,7.168001E1,5.1022224E0,5.103467E2,1.1200001E0,4.3928894E2,1.729778E1,1.368889E0,4.604445E0,1.1200001E0,3.1608892E1,2.376889E1,7.715556E0,1.0204445E1,2.8622225E1,8.2506676E1,3.0488892E1,4.1191116E1],"tree_param":{"num_deleted":"0","num_feature":"89","num_nodes":"53","size_leaf_vector":"1"}},{"base_weights":[-5.3551894E-1],"categories":[],"categories_nodes":[],"categories_segments":[],"categories_sizes":[],"default_left":[0],"id":13,"left_children":[-1],"loss_changes":[0E0],"parents":[2147483647],"right_children":[-1],"split_conditions":[-1.6065569E-1],"split_indices":[0],"split_type":[0],"sum_hessian":[8.977311E4],"tree_param":{"num_deleted":"0","num_feature":"89","num_nodes":"1","size_leaf_vector":"1"}},{"base_weights":[-5.298937E-1,-5.3525233E-1,-2.9671586E-1,-1.606268E-1,-4.5977885E-1,6.547912E-1,-1.6061476E-1,-1.5985562E-1,3.0759948E-1,-4.2273802E-1,1.7852252E0,-1.503856E-1,3.486766E0,-4.8406613E-1,-1.8309292E-1,6.0623735E-1,3.7825134E0,5.6603767E-2,1.4294976E0,-5.0891143E-1,-3.7456334E-1,2.8541222E-1,-1.5456556E-1,3.2174423E0,-5.072174E-1,5.2382956E0,2.615825E0,-1.5473904E-1,-7.850913E-2,-1.5544382E-1,1.8115278E-1,-8.596931E-2,4.957331E-1,-1.4394994E-1,1.297192E0,-1.5888512E-1,1.981132E-1,-9.932089E-2,1.6649133E0,8.340453E-1,-1.0912982E-1],"categories":[],"categories_nodes":[],"categories_segments":[],"categories_sizes":[],"default_left":[0,0,0,0,0,0,0,0,0,0,0,0,0,0,0,0,0,0,0,0,0,0,0,0,0,0,0,0,0,0,0,0,0,0,0,0,0,0,0,0,0],"id":14,"left_children":[1,3,5,-1,7,9,-1,-1,11,13,15,-1,17,19,21,23,25,-1,-1,27,29,31,-1,33,35,37,39,-1,-1,-1,-1,-1,-1,-1,-1,-1,-1,-1,-1,-1,-1],"loss_changes":[1.12015625E2,8.808594E-1,4.5884933E2,0E0,1.1636318E1,4.9446506E2,0E0,0E0,4.9122078E1,2.9731102E0,4.639427E2,0E0,1.5382912E1,2.590065E-1,7.002552E0,3.6708014E2,1.1079724E2,0E0,0E0,8.956909E-2,5.138597E0,1.5267269E1,0E0,1.5635657E2,2.6769638E0,5.6666992E1,2.1912842E1,0E0,0E0,0E0,0E0,0E0,0E0,0E0,0E0,0E0,0E0,0E0,0E0,0E0,0E0],"parents":[2147483647,0,0,1,1,2,2,4,4,5,5,8,8,9,9,10,10,12,12,13,13,14,14,15,15,16,16,19,19,20,20,21,21,23,23,24,24,25,25,26,26],"right_children":[2,4,6,-1,8,10,-1,-1,12,14,16,-1,18,20,22,24,26,-1,-1,28,30,32,-1,34,36,38,40,-1,-1,-1,-1,-1,-1,-1,-1,-1,-1,-1,-1,-1,-1],"split_conditions":[2.896E4,4.4E1,2.92E4,-1.606268E-1,2.4E1,9E1,-1.6061476E-1,-1.5985562E-1,2.18E2,6.6E1,5.2332E4,-1.503856E-1,1.6564286E3,4.165639E6,8.96E2,3.6188E4,5.420533E6,5.6603767E-2,1.4294976E0,6.4E1,6.659718E-1,5.1516E4,-1.5456556E-1,1.7069438E-1,5.2008E4,3.5196635E6,4.015E3,-1.5473904E-1,-7.850913E-2,-1.5544382E-1,1.8115278E-1,-8.596931E-2,4.957331E-1,-1.4394994E-1,1.297192E0,-1.5888512E-1,1.981132E-1,-9.932089E-2,1.6649133E0,8.340453E-1,-1.0912982E-1],"split_indices":[68,69,68,0,70,21,0,0,10,21,0,0,14,24,26,0,22,0,0,21,17,0,0,39,0,24,26,0,0,0,0,0,0,0,0,0,0,0,0,0,0],"split_type":[0,0,0,0,0,0,0,0,0,0,0,0,0,0,0,0,0,0,0,0,0,0,0,0,0,0,0,0,0,0,0,0,0,0,0,0,0,0,0,0,0],"sum_hessian":[8.977311E4,8.775512E4,2.0179913E3,8.755153E4,2.0359113E2,4.0432004E2,1.6136713E3,1.861689E2,1.7422224E1,2.0732446E2,1.9699557E2,1.4560001E1,2.8622224E0,1.6426668E2,4.305778E1,1.24693344E2,7.230223E1,1.1200001E0,1.7422223E0,1.3091557E2,3.3351112E1,1.7920002E1,2.513778E1,3.6711113E1,8.798223E1,3.0613337E1,4.1688892E1,1.2631112E2,4.604445E0,2.9493336E1,3.857778E0,1.31911125E1,4.7288895E0,8.586667E0,2.8124447E1,8.686223E1,1.1200001E0,1.617778E0,2.8995558E1,3.9573338E1,2.1155558E0],"tree_param":{"num_deleted":"0","num_feature":"89","num_nodes":"41","size_leaf_vector":"1"}},{"base_weights":[8.5076153E-1,9.900321E-1,-5.053501E-1,3.97106E-1,1.1521109E0,-5.214446E-1,3.4682924E-1,7.913918E-1,-4.6979254E-1,5.2877398E0,1.1062402E0,-5.221088E-1,3.596579E-1,1.2735782E0,3.5527164E-1,1.3904328E0,-5.0908464E-1,1.1934767E0,5.4546356E0,2.2122389E-1,1.1733158E0,6.241964E-1,-5.224811E-1,1.1439285E0,2.7342556E0,1.1612236E0,-6.995105E-2,9.9285364E-1,5.209077E0,-1.5642175E-1,-4.9071088E-1,-1.121893E-1,3.8186386E-1,5.460405E0,4.7759792E-1,-4.284519E-1,9.472687E-1,1.1309259E0,1.763665E0,-5.2136993E-1,-2.0149206E-1,3.4051E-1,1.3268577E0,1.3908527E0,3.164274E-1,3.4652957E-1,1.4574286E0,1.5577558E0,-4.3741778E-2,3.941464E-1,-1.1054412E-1,2.0246632E0,2.927187E-1,1.0820128E0,-1.561852E-1,1.6391349E0,3.8294297E-1,3.5749993E-1,-1.5761656E-1,9.60959E-2,3.5148048E-1,7.075711E-2,3.4082553E-1,8.425885E-1,3.4236544E-1,2.7794228E-3,-1.5643059E-1],"categories":[],"categories_nodes":[],"categories_segments":[],"categories_sizes":[],"default_left":[0,0,0,0,0,0,0,0,0,0,0,0,0,0,0,0,0,0,0,0,0,0,0,0,0,0,0,0,0,0,0,0,0,0,0,0,0,0,0,0,0,0,0,0,0,0,0,0,0,0,0,0,0,0,0,0,0,0,0,0,0,0,0,0,0,0,0],"id":15,"left_children":[1,3,5,7,9,11,-1,13,15,17,19,21,-1,23,25,27,29,31,33,35,37,-1,39,41,43,45,47,49,51,-1,53,-1,-1,55,-1,57,59,61,63,65,-1,-1,-1,-1,-1,-1,-1,-1,-1,-1,-1,-1,-1,-1,-1,-1,-1,-1,-1,-1,-1,-1,-1,-1,-1,-1,-1],"loss_changes":[3.1528797E4,1.4548016E4,4.1635547E2,1.1109162E4,2.2547812E4,1.8220703E1,0E0,4.697465E3,7.434153E2,8.844883E2,6.979953E3,1.600586E1,0E0,2.0060254E3,4.0206594E3,3.1434583E2,1.9968262E0,6.991577E0,1.921875E1,3.9084844E3,2.73325E3,0E0,2.2011719E0,2.7923926E2,2.7555742E3,8.613965E1,3.0668047E3,8.431029E1,1.2124298E2,0E0,4.9346875E2,0E0,0E0,1.0699219E1,0E0,6.8744006E2,5.499624E2,4.7067188E2,4.758467E3,5.3466797E-1,0E0,0E0,0E0,0E0,0E0,0E0,0E0,0E0,0E0,0E0,0E0,0E0,0E0,0E0,0E0,0E0,0E0,0E0,0E0,0E0,0E0,0E0,0E0,0E0,0E0,0E0,0E0],"parents":[2147483647,0,0,1,1,2,2,3,3,4,4,5,5,7,7,8,8,9,9,10,10,11,11,13,13,14,14,15,15,16,16,17,17,18,18,19,19,20,20,22,22,23,23,24,24,25,25,26,26,27,27,28,28,30,30,33,33,35,35,36,36,37,37,38,38,39,39],"right_children":[2,4,6,8,10,12,-1,14,16,18,20,22,-1,24,26,28,30,32,34,36,38,-1,40,42,44,46,48,50,52,-1,54,-1,-1,56,-1,58,60,62,64,66,-1,-1,-1,-1,-1,-1,-1,-1,-1,-1,-1,-1,-1,-1,-1,-1,-1,-1,-1,-1,-1,-1,-1,-1,-1,-1,-1],"split_conditions":[1.4957224E3,4E0,1E0,5.892504E3,6E0,3.51E2,3.4682924E-1,6.4E1,1E0,2E0,8E0,1.34E2,3.596579E-1,1E0,1E0,1E0,5.002E4,3E0,1E0,2.0904567E-2,1E0,6.241964E-1,2.448149E2,1E0,2.5E2,2.4588129E4,2.51E2,9.827867E2,4.43E2,-1.5642175E-1,5.0132E4,-1.121893E-1,3.8186386E-1,8E0,4.7759792E-1,1E0,3E0,2.2E1,2.29E2,1E0,-2.0149206E-1,3.4051E-1,1.3268577E0,1.3908527E0,3.164274E-1,3.4652957E-1,1.4574286E0,1.5577558E0,-4.3741778E-2,3.941464E-1,-1.1054412E-1,2.0246632E0,2.927187E-1,1.0820128E0,-1.561852E-1,1.6391349E0,3.8294297E-1,3.5749993E-1,-1.5761656E-1,9.60959E-2,3.5148048E-1,7.075711E-2,3.4082553E-1,8.425885E-1,3.4236544E-1,2.7794228E-3,-1.5643059E-1],"split_indices":[15,6,86,16,6,68,0,36,48,9,54,68,0,85,85,87,0,4,86,39,85,0,11,84,68,72,67,19,1,0,0,0,0,74,0,85,67,1,68,31,0,0,0,0,0,0,0,0,0,0,0,0,0,0,0,0,0,0,0,0,0,0,0,0,0,0,0],"split_type":[0,0,0,0,0,0,0,0,0,0,0,0,0,0,0,0,0,0,0,0,0,0,0,0,0,0,0,0,0,0,0,0,0,0,0,0,0,0,0,0,0,0,0,0,0,0,0,0,0,0,0,0,0,0,0,0,0,0,0,0,0,0,0,0,0,0,0],"sum_hessian":[1.6693347E5,1.5138658E5,1.5546891E4,3.2499299E4,1.1888727E5,1.5398412E4,1.4847853E2,2.2339059E4,1.016024E4,1.3029332E3,1.1758434E5,1.5393166E4,5.2464776E0,1.0608306E4,1.1730753E4,2.0945639E2,9.950783E3,5.1350895E1,1.2515823E3,8.284203E3,1.0930014E5,1.4026042E0,1.5391764E4,9.745112E3,8.6319257E2,4.0509653E3,7.6797876E3,1.9084637E2,1.8610022E1,5.94008E3,4.0107036E3,2.29703E0,4.9053864E1,1.2493027E3,2.279522E0,4.3722544E3,3.9119487E3,1.0198038E5,7.319758E3,1.5282413E4,1.09350494E2,9.72009E3,2.5022654E1,4.0396664E2,4.592259E2,4.045575E3,5.3903847E0,1.0816738E2,7.57162E3,1.5446288E2,3.6383495E1,1.3210673E1,5.3993487E0,2.8194778E1,3.9825088E3,1.2479893E3,1.3134744E0,2.4619862E2,4.1260557E3,1.0315305E3,2.8804182E3,5.847134E2,1.01395664E5,2.7311665E3,4.5885913E3,1.8630849E0,1.528055E4],"tree_param":{"num_deleted":"0","num_feature":"89","num_nodes":"67","size_leaf_vector":"1"}},{"base_weights":[-4.979832E-1,-5.1031953E-1,-2.508054E-1,-3.3518207E-1,-5.1941437E-1,-1.5676795E-1,1.0084901E0,-5.119431E-1,2.5869574E-2,-5.2008086E-1,-3.179816E-1,1.1105535E0,-1.5139827E-1,-5.1801246E-1,3.696058E-1,-5.159444E-1,8.0975866E-1,-1.5623346E-1,-4.7530052E-1,-1.5524067E-1,1.6623319E0,1.131054E0,-1.3625951E-1,2.0856647E-2,-5.2021885E-1,-1.4196292E-1,2.4894395E0,-5.1784384E-1,-9.1664605E-2,1.2763934E0,-1.5770422E-1,-1.5622382E-1,8.596161E-1,-1.0955842E-1,6.0797304E-1,1.0010535E0,3.7273148E-1,-1.308786E-1,2.3591913E-1,-1.11671925E-1,-1.564002E-1,-9.2949644E-2,1.2831508E0,-1.5592033E-1,-8.605947E-2,6.2300347E-2,-9.2544205E-2,3.4866214E-1,9.9852693E-1,4.5712665E-1,-1.4610639E-1,-6.293929E-2,3.0481043E-1],"categories":[],"categories_nodes":[],"categories_segments":[],"categories_sizes":[],"default_left":[0,0,0,0,0,0,0,0,0,0,0,0,0,0,0,0,0,0,0,0,0,0,0,0,0,0,0,0,0,0,0,0,0,0,0,0,0,0,0,0,0,0,0,0,0,0,0,0,0,0,0,0,0],"id":16,"left_children":[1,3,5,7,9,-1,11,13,15,17,19,21,-1,23,25,27,29,-1,31,-1,33,35,-1,37,39,-1,41,43,45,47,-1,-1,49,-1,-1,51,-1,-1,-1,-1,-1,-1,-1,-1,-1,-1,-1,-1,-1,-1,-1,-1,-1],"loss_changes":[1.7311035E2,8.601758E1,9.2542706E2,1.7067389E2,6.739258E0,0E0,7.469809E1,9.7969055E0,3.7410486E2,1.3544922E0,6.889027E1,1.494989E1,0E0,2.1312256E0,2.4152632E1,3.7228394E-1,2.249963E2,0E0,4.883275E1,0E0,1.2554268E1,5.192505E0,0E0,3.2244198E0,9.899902E-2,0E0,2.0431345E1,7.723999E-2,2.9358354E-1,5.8706696E1,0E0,0E0,2.4563637E1,0E0,0E0,4.027191E0,0E0,0E0,0E0,0E0,0E0,0E0,0E0,0E0,0E0,0E0,0E0,0E0,0E0,0E0,0E0,0E0,0E0],"parents":[2147483647,0,0,1,1,2,2,3,3,4,4,6,6,7,7,8,8,9,9,10,10,11,11,13,13,14,14,15,15,16,16,18,18,20,20,21,21,23,23,24,24,26,26,27,27,28,28,29,29,32,32,35,35],"right_children":[2,4,6,8,10,-1,12,14,16,18,20,22,-1,24,26,28,30,-1,32,-1,34,36,-1,38,40,-1,42,44,46,48,-1,-1,50,-1,-1,52,-1,-1,-1,-1,-1,-1,-1,-1,-1,-1,-1,-1,-1,-1,-1,-1,-1],"split_conditions":[5.4E2,2.4E1,8.08E3,2.56E2,1.6572858E3,-1.5676795E-1,8.192E3,1.6384E4,7.33E3,1.97E2,7.34E2,5.4058E4,-1.5139827E-1,3E0,7.5E5,1.2E7,9.198E3,-1.5623346E-1,8.08E3,-1.5524067E-1,5.24E2,4.175E1,-1.3625951E-1,6.689E3,6E0,-1.4196292E-1,1.28E2,3.415E3,2.57E2,2.4E2,-1.5770422E-1,-1.5622382E-1,2.4E1,-1.0955842E-1,6.0797304E-1,2.37557E5,3.7273148E-1,-1.308786E-1,2.3591913E-1,-1.11671925E-1,-1.564002E-1,-9.2949644E-2,1.2831508E0,-1.5592033E-1,-8.605947E-2,6.2300347E-2,-9.2544205E-2,3.4866214E-1,9.9852693E-1,4.5712665E-1,-1.4610639E-1,-6.293929E-2,3.0481043E-1],"split_indices":[31,36,1,68,10,0,1,67,0,31,68,0,0,3,16,16,0,0,1,0,1,10,0,1,3,0,68,0,67,67,0,0,70,0,0,26,0,0,0,0,0,0,0,0,0,0,0,0,0,0,0,0,0],"split_type":[0,0,0,0,0,0,0,0,0,0,0,0,0,0,0,0,0,0,0,0,0,0,0,0,0,0,0,0,0,0,0,0,0,0,0,0,0,0,0,0,0,0,0,0,0,0,0,0,0,0,0,0,0],"sum_hessian":[5.681216E4,5.4110508E4,2.701655E3,2.6730996E3,5.1437406E4,2.2226047E3,4.7905026E2,1.7942606E3,8.788391E2,5.12662E4,1.712074E2,4.4902893E2,3.0021332E1,1.7824014E3,1.1859194E1,5.198602E2,3.5897885E2,5.0469633E4,7.965656E2,1.5621022E2,1.499717E1,4.4349567E2,5.533278E0,7.23376E0,1.7751676E3,9.041281E0,2.817913E0,5.1732367E2,2.5365453E0,2.660565E2,9.2922356E1,7.709302E2,2.5635435E1,2.2835345E0,1.2713635E1,2.0925444E2,2.3424123E2,4.798569E0,2.4351904E0,1.5781618E1,1.759386E3,1.4204409E0,1.3974721E0,5.1188382E2,5.4398713E0,1.0832387E0,1.4533067E0,2.5351582E2,1.2540657E1,1.7080223E1,8.555211E0,2.3984325E0,2.0685602E2],"tree_param":{"num_deleted":"0","num_feature":"89","num_nodes":"53","size_leaf_vector":"1"}},{"base_weights":[3.254183E-1,-4.94527E-1,8.1517535E-1,-5.1715356E-1,6.582519E-1,1.118569E0,-1.5640815E-1,-5.18542E-1,-3.507249E-1,1.1261959E0,-1.5561765E-1,-4.6376014E-1,1.1331819E0,-5.191642E-1,-2.4198115E-1,-5.110679E-1,3.2799438E-1,3.788914E-2,3.3841082E-1,-4.8991445E-1,1.2574273E0,-1.5736762E-1,1.1369576E0,-5.198508E-1,-4.6385568E-1,-1.5438569E-1,1.2451123E0,-1.5547872E-1,-3.348397E-1,-3.1769913E-2,-1.5605874E-1,4.9531755E-1,-8.845004E-2,2.7484639E0,1.1362488E0,-1.5606189E-1,-1.45083E-1,-3.7710086E-2,-1.5637779E-1,-8.425894E-2,4.245206E-1,-1.381326E-1,-2.8760396E-2,-1.4120829E-1,7.3041433E-1,-1.3240404E-1,1.1429127E0,3.4097445E-1,-1.4428478E-1],"categories":[],"categories_nodes":[],"categories_segments":[],"categories_sizes":[],"default_left":[0,0,0,0,0,0,0,0,0,0,0,0,0,0,0,0,0,0,0,0,0,0,0,0,0,0,0,0,0,0,0,0,0,0,0,0,0,0,0,0,0,0,0,0,0,0,0,0,0],"id":17,"left_children":[1,3,5,7,9,11,-1,13,15,17,-1,19,21,23,25,27,-1,-1,-1,29,31,-1,33,35,37,-1,39,-1,41,43,-1,-1,-1,45,47,-1,-1,-1,-1,-1,-1,-1,-1,-1,-1,-1,-1,-1,-1],"loss_changes":[3.9692027E4,9.644199E2,2.5092586E4,8.194336E0,3.9269565E2,1.1666445E3,0E0,6.060547E0,7.071828E1,7.9541016E-1,0E0,2.1422325E1,3.133672E2,1.1220703E0,3.411841E1,1.7311859E-1,0E0,0E0,0E0,6.309593E0,4.885207E0,0E0,5.3820312E1,2.0410156E-1,8.651085E0,0E0,3.7911224E0,0E0,3.6255205E-1,3.2904873E1,0E0,0E0,0E0,7.349596E1,2.7351562E1,0E0,0E0,0E0,0E0,0E0,0E0,0E0,0E0,0E0,0E0,0E0,0E0,0E0,0E0],"parents":[2147483647,0,0,1,1,2,2,3,3,4,4,5,5,7,7,8,8,9,9,11,11,12,12,13,13,14,14,15,15,19,19,20,20,22,22,23,23,24,24,26,26,28,28,29,29,33,33,34,34],"right_children":[2,4,6,8,10,12,-1,14,16,18,-1,20,22,24,26,28,-1,-1,-1,30,32,-1,34,36,38,-1,40,-1,42,44,-1,-1,-1,46,48,-1,-1,-1,-1,-1,-1,-1,-1,-1,-1,-1,-1,-1,-1],"split_conditions":[2E0,1.2005E3,1E1,3E0,2.4E1,6E0,-1.5640815E-1,3.26E2,2.86E3,4.99E2,-1.5561765E-1,8E0,1E0,9.98744E5,6.56866E2,6.2994E4,3.2799438E-1,3.788914E-2,3.3841082E-1,1E0,1.23E2,-1.5736762E-1,6.4E1,6.4635E4,2.57E2,-1.5438569E-1,2.37E2,-1.5547872E-1,6.092872E6,4.5E0,-1.5605874E-1,4.9531755E-1,-8.845004E-2,1E0,9E0,-1.5606189E-1,-1.45083E-1,-3.7710086E-2,-1.5637779E-1,-8.425894E-2,4.245206E-1,-1.381326E-1,-2.8760396E-2,-1.4120829E-1,7.3041433E-1,-1.3240404E-1,1.1429127E0,3.4097445E-1,-1.4428478E-1],"split_indices":[69,42,10,53,6,42,0,13,12,22,0,10,85,21,43,1,0,0,0,5,1,0,36,0,67,0,67,0,3,42,0,0,0,49,5,0,0,0,0,0,0,0,0,0,0,0,0,0,0],"split_type":[0,0,0,0,0,0,0,0,0,0,0,0,0,0,0,0,0,0,0,0,0,0,0,0,0,0,0,0,0,0,0,0,0,0,0,0,0,0,0,0,0,0,0,0,0,0,0,0,0],"sum_hessian":[9.883913E4,3.6960426E4,6.1878707E4,3.6249477E4,7.1094684E2,5.0431027E4,1.1447681E4,3.594747E4,3.0201038E2,5.0872894E2,2.0221788E2,4.6119327E2,4.9969832E4,3.5865895E4,8.157158E1,2.7240878E2,2.9601597E1,1.0624064E0,5.0766653E2,4.5499475E2,6.19851E0,1.1323841E2,4.9856594E4,3.5417848E4,4.4804715E2,6.94862E1,1.2085381E1,2.5985925E2,1.2549507E1,2.8335733E1,4.2665903E2,4.8938518E0,1.3046584E0,2.021445E1,4.983638E4,3.5060574E4,3.5727417E2,6.548359E1,3.8256354E2,1.1457299E0,1.0939651E1,7.6184993E0,4.931008E0,2.4741936E1,3.5937989E0,5.192214E0,1.5022238E1,4.982643E4,9.94876E0],"tree_param":{"num_deleted":"0","num_feature":"89","num_nodes":"49","size_leaf_vector":"1"}},{"base_weights":[-4.055118E-1,-4.590861E-1,6.395278E-1,-4.8506084E-1,1.006823E0,1.1387956E0,-1.5661202E-1,-5.0374216E-1,-1.3826987E-1,-1.5535054E-1,1.1390296E0,-1.5578109E-1,1.1422352E0,-5.109809E-1,6.13181E-1,-5.203939E-1,9.0637374E-1,-1.4885795E-1,3.4608924E-1,1.1436753E0,-1.0007034E-1,-5.198212E-1,-4.113963E-1,1.0304291E0,-1.5934512E-1,-1.5681076E-1,-4.3640706E-1,-1.563093E-1,1.1854717E0,3.405026E-1,4.3607333E-1,-1.5628034E-1,-1.4740898E-1,8.3099145E-1,-1.5213935E-1,-1.5740296E-1,4.8376414E-1,7.486418E-2,-1.4956395E-1,-1.3332959E-1,3.5853136E-1],"categories":[],"categories_nodes":[],"categories_segments":[],"categories_sizes":[],"default_left":[0,0,0,0,0,0,0,0,0,0,0,0,0,0,0,0,0,0,0,0,0,0,0,0,0,0,0,0,0,0,0,0,0,0,0,0,0,0,0,0,0],"id":18,"left_children":[1,3,5,7,9,11,-1,13,15,-1,17,-1,19,21,23,25,27,-1,-1,29,-1,31,33,35,-1,-1,37,-1,39,-1,-1,-1,-1,-1,-1,-1,-1,-1,-1,-1,-1],"loss_changes":[3.32875E3,2.1537861E3,1.6821292E3,3.5992578E2,1.9912213E2,1.21604E1,0E0,4.2661523E2,1.1348555E3,0E0,2.221936E1,0E0,4.683838E0,4.590625E1,1.6287473E2,1.7541504E-1,3.039721E2,0E0,0E0,3.7822266E0,0E0,1.2685547E0,1.3038044E3,2.2668399E2,0E0,0E0,2.75595E0,0E0,1.0536011E1,0E0,0E0,0E0,0E0,0E0,0E0,0E0,0E0,0E0,0E0,0E0,0E0],"parents":[2147483647,0,0,1,1,2,2,3,3,4,4,5,5,7,7,8,8,10,10,12,12,13,13,14,14,15,15,16,16,19,19,21,21,22,22,23,23,26,26,28,28],"right_children":[2,4,6,8,10,12,-1,14,16,-1,18,-1,20,22,24,26,28,-1,-1,30,-1,32,34,36,-1,-1,38,-1,40,-1,-1,-1,-1,-1,-1,-1,-1,-1,-1,-1,-1],"split_conditions":[1.1632E4,6.878695E6,1E1,5.4E2,5.06466E6,3.18112E6,-1.5661202E-1,1.000057E6,3.525E3,-1.5535054E-1,3.2E1,-1.5578109E-1,7.706072E7,1.1597188E6,4.2414E4,3.436E3,8.76E3,-1.4885795E-1,3.4608924E-1,2.448149E2,-1.0007034E-1,1.14E3,7.28268E6,3.559E4,-1.5934512E-1,-1.5681076E-1,1.940907E2,-1.563093E-1,1.5880352E6,3.405026E-1,4.3607333E-1,-1.5628034E-1,-1.4740898E-1,8.3099145E-1,-1.5213935E-1,-1.5740296E-1,4.8376414E-1,7.486418E-2,-1.4956395E-1,-1.3332959E-1,3.5853136E-1],"split_indices":[7,21,5,31,75,27,0,26,12,0,70,0,3,28,0,6,67,0,0,11,0,26,20,0,0,0,11,0,28,0,0,0,0,0,0,0,0,0,0,0,0],"split_type":[0,0,0,0,0,0,0,0,0,0,0,0,0,0,0,0,0,0,0,0,0,0,0,0,0,0,0,0,0,0,0,0,0,0,0,0,0,0,0,0,0],"sum_hessian":[5.944924E4,5.6550707E4,2.8985305E3,5.5566777E4,9.839296E2,2.02721E3,8.713205E2,5.272602E4,2.8407607E3,7.8278244E1,9.056514E2,3.8862085E0,2.0233237E3,5.2387043E4,3.3897403E2,2.0803015E3,7.604593E2,7.7231402E0,8.979283E2,2.021576E3,1.7476128E0,4.811182E4,4.2752227E3,2.4847441E2,9.049964E1,2.0195642E3,6.073726E1,1.2423107E2,6.362282E2,1.9711147E3,5.0461308E1,4.6284E4,1.8278195E3,1.2407719E2,4.1511455E3,6.770413E1,1.8077028E2,4.7945495E0,5.594271E1,3.4728582E0,6.327554E2],"tree_param":{"num_deleted":"0","num_feature":"89","num_nodes":"41","size_leaf_vector":"1"}},{"base_weights":[6.115229E-1,-1.5648001E-1,9.425483E-1,1.0250002E0,-5.1839924E-1,1.0801142E0,-4.9088877E-1,-1.5649912E-1,3.116688E-1,1.1044943E0,-4.6581408E-1,1.2647258E0,-1.5676768E-1,1.1178759E0,-5.3956336E-1,-5.2912647E-1,1.1445034E0,-4.9880654E-2,1.7763901E0,3.3748028E-1,-5.5005115E-2,-1.5758097E-1,-1.9658363E-1,-1.592696E-1,2.0794691E-1,8.657665E-2,3.487252E-1,-1.6568366E-1,4.7986677E-1,5.581911E-1,2.968962E-1],"categories":[],"categories_nodes":[],"categories_segments":[],"categories_sizes":[],"default_left":[0,0,0,0,0,0,0,0,0,0,0,0,0,0,0,0,0,0,0,0,0,0,0,0,0,0,0,0,0,0,0],"id":19,"left_children":[1,-1,3,5,7,9,11,-1,-1,13,15,17,-1,19,21,23,25,27,29,-1,-1,-1,-1,-1,-1,-1,-1,-1,-1,-1,-1],"loss_changes":[4.9912098E4,0E0,1.2405398E4,8.1446406E3,2.8513672E1,3.5456406E3,1.9084137E2,0E0,0E0,2.0378203E3,1.4956482E2,4.1053703E1,0E0,8.438047E2,8.9349365E-1,3.4145203E0,5.168457E-1,1.5829025E1,1.0661011E0,0E0,0E0,0E0,0E0,0E0,0E0,0E0,0E0,0E0,0E0,0E0,0E0],"parents":[2147483647,0,0,2,2,3,3,4,4,5,5,6,6,9,9,10,10,11,11,13,13,14,14,15,15,16,16,17,17,18,18],"right_children":[2,-1,4,6,8,10,12,-1,-1,14,16,18,-1,20,22,24,26,28,30,-1,-1,-1,-1,-1,-1,-1,-1,-1,-1,-1,-1],"split_conditions":[1E0,-1.5648001E-1,1.1601E4,1E0,1.52E7,1.4831E4,1E0,-1.5649912E-1,3.116688E-1,4.29E2,1E0,9.06E2,-1.5676768E-1,2.36E2,3.2634291E4,1.1595E4,3.4817E4,8E0,1E0,3.3748028E-1,-5.5005115E-2,-1.5758097E-1,-1.9658363E-1,-1.592696E-1,2.0794691E-1,8.657665E-2,3.487252E-1,-1.6568366E-1,4.7986677E-1,5.581911E-1,2.968962E-1],"split_indices":[85,0,7,40,29,26,49,0,0,8,45,22,0,68,16,7,0,41,5,0,0,0,0,0,0,0,0,0,0,0,0],"split_type":[0,0,0,0,0,0,0,0,0,0,0,0,0,0,0,0,0,0,0,0,0,0,0,0,0,0,0,0,0,0,0],"sum_hessian":[1.3306381E5,3.0083912E4,1.0297991E5,9.7478766E4,5.501144E3,9.405929E4,3.4194749E3,5.4903E3,1.0844079E1,9.2599234E4,1.4600569E3,5.9902214E1,3.3595728E3,9.185194E4,7.47297E2,1.4054698E3,5.4587048E1,1.7035595E1,4.286662E1,9.135653E4,4.9540378E2,6.7006757E2,7.722943E1,1.4039999E3,1.4700084E0,1.4698213E0,5.3117226E1,1.3568091E1,3.4675033E0,3.7487316E1,5.379301E0],"tree_param":{"num_deleted":"0","num_feature":"89","num_nodes":"31","size_leaf_vector":"1"}},{"base_weights":[-4.5631024E-1,-5.0459975E-1,6.3170654E-1,-5.103507E-1,8.7768173E-1,5.548999E-3,1.2520751E0,-5.132847E-1,2.7143478E-1,-1.5223792E-1,3.4652984E-1,-5.1694125E-1,1.0579782E0,1.1068794E0,2.185212E0,-5.1621425E-1,6.5280125E-2,-4.8415E-1,2.6596425E0,-1.5617965E-1,3.576578E-1,-1.49446E-1,1.1449441E0,1.1473026E0,-1.5744501E-1,-5.167823E-1,2.3078386E-1,-1.5611932E-1,2.5810008E0,1.8753304E-1,-1.565859E-1,4.033059E0,-4.3125072E-1,3.4410158E-1,1.02423854E-1,1.1637613E0,-1.6581124E-1,-1.5590316E-1,-1.18115E-1,3.7554404E-1,-1.5027289E-1,2.1562426E0,-1.5200318E-1,-1.3777769E-1,8.12093E-1,1.7770904E0,3.463809E-1,-1.4713162E-1,6.1339807E-2,3.5065553E-1,-1.3554063E-1],"categories":[],"categories_nodes":[],"categories_segments":[],"categories_sizes":[],"default_left":[0,0,0,0,0,0,0,0,0,0,0,0,0,0,0,0,0,0,0,0,0,0,0,0,0,0,0,0,0,0,0,0,0,0,0,0,0,0,0,0,0,0,0,0,0,0,0,0,0,0,0],"id":20,"left_children":[1,3,5,7,9,11,13,15,17,-1,-1,19,21,23,-1,25,27,29,31,-1,-1,-1,33,35,-1,37,39,-1,41,43,-1,45,47,-1,-1,49,-1,-1,-1,-1,-1,-1,-1,-1,-1,-1,-1,-1,-1,-1,-1],"loss_changes":[3.038625E3,4.4062305E2,9.54793E2,1.2662402E2,8.888449E1,6.737636E2,1.0733016E3,9.3149414E1,3.7450842E2,0E0,0E0,5.739151E0,5.558136E1,8.020422E1,0E0,2.33125E1,4.1044955E2,4.1088715E0,2.1341422E2,0E0,0E0,0E0,2.4649048E-1,3.3603027E1,0E0,1.9254883E1,3.2172173E1,0E0,7.51819E2,1.6157562E1,0E0,1.8156024E2,7.114725E-1,0E0,0E0,1.0125732E1,0E0,0E0,0E0,0E0,0E0,0E0,0E0,0E0,0E0,0E0,0E0,0E0,0E0,0E0,0E0],"parents":[2147483647,0,0,1,1,2,2,3,3,4,4,5,5,6,6,7,7,8,8,11,11,12,12,13,13,15,15,16,16,17,17,18,18,22,22,23,23,25,25,26,26,28,28,29,29,31,31,32,32,35,35],"right_children":[2,4,6,8,10,12,14,16,18,-1,-1,20,22,24,-1,26,28,30,32,-1,-1,-1,34,36,-1,38,40,-1,42,44,-1,46,48,-1,-1,50,-1,-1,-1,-1,-1,-1,-1,-1,-1,-1,-1,-1,-1,-1,-1],"split_conditions":[1.05E7,3.51E2,9.4567105E-2,3.5886272E6,1E0,5.67E7,4.04479E-2,3E0,1.915E2,-1.5223792E-1,3.4652984E-1,8.1E1,1.6852374E2,8.041823E6,2.185212E0,1.87E2,2.35E2,5.366724E6,4E0,-1.5617965E-1,3.576578E-1,-1.49446E-1,5.583292E0,5.0718E4,-1.5744501E-1,2.896E4,1.7E1,-1.5611932E-1,2.36E2,4.27103E6,-1.565859E-1,4.972862E6,4.194E3,3.4410158E-1,1.02423854E-1,1.23E2,-1.6581124E-1,-1.5590316E-1,-1.18115E-1,3.7554404E-1,-1.5027289E-1,2.1562426E0,-1.5200318E-1,-1.3777769E-1,8.12093E-1,1.7770904E0,3.463809E-1,-1.4713162E-1,6.1339807E-2,3.5065553E-1,-1.3554063E-1],"split_indices":[18,9,38,72,85,29,39,53,10,0,0,9,11,78,0,40,68,78,5,0,0,0,16,0,0,68,2,0,68,19,0,71,12,0,0,1,0,0,0,0,0,0,0,0,0,0,0,0,0,0,0],"split_type":[0,0,0,0,0,0,0,0,0,0,0,0,0,0,0,0,0,0,0,0,0,0,0,0,0,0,0,0,0,0,0,0,0,0,0,0,0,0,0,0,0,0,0,0,0,0,0,0,0,0,0],"sum_hessian":[5.782768E4,5.5370695E4,2.4569836E3,5.514191E4,2.2878642E2,1.2232886E3,1.2336951E3,5.4936082E4,2.0582855E2,3.8037357E1,1.9074907E2,8.177943E2,4.0549432E2,1.2058524E3,2.7842619E1,5.4659418E4,2.7666113E2,1.56965E2,4.8863552E1,8.167419E2,1.0524311E0,2.121175E1,3.8428256E2,1.1769908E3,2.8861618E1,5.4618195E4,4.122453E1,2.2505894E2,5.1602196E1,8.152409E0,1.4881259E2,3.3619946E1,1.5243607E1,3.82873E2,1.4095936E0,1.1660175E3,1.0973368E1,5.335981E4,1.2583849E3,1.6912882E1,2.4311646E1,2.0175215E1,3.142698E1,7.137725E0,1.0146837E0,1.9653542E1,1.3966405E1,1.4154306E1,1.0893004E0,1.1626306E3,3.386835E0],"tree_param":{"num_deleted":"0","num_feature":"89","num_nodes":"51","size_leaf_vector":"1"}},{"base_weights":[-4.5400837E-1,-4.871602E-1,6.8448275E-1,-5.060257E-1,3.7148693E-1,1.0745071E0,-1.5590961E-1,-5.158279E-1,-1.9419938E-1,9.5778817E-1,-5.126703E-1,1.1873126E0,-1.5534976E-1,-5.1925266E-1,-4.095101E-1,-5.238062E-1,1.1117821E0,-1.5193923E-1,1.1524444E0,-4.2019552E-1,-1.5558957E-1,1.7590371E0,1.1695025E0,-5.196555E-1,-7.541337E-2,7.207356E0,-4.6589285E-1,-1.9270305E-1,-1.5625933E-1,9.89116E-1,4.1321287E0,9.436098E-1,3.5087416E-1,2.4513666E-1,-1.5174334E-1,1.14941E0,1.1930623E0,-1.5617895E-1,-1.4963005E-1,-1.5284547E-1,9.5608026E-1,-1.2461564E-1,3.2022903E0,-1.4939569E-1,5.105521E-1,-1.5577634E-1,3.722348E-1,1.4287524E0,-9.632996E-2,3.489553E-1,-2.1613932E-1,-1.4700858E-1,3.5182652E-1],"categories":[],"categories_nodes":[],"categories_segments":[],"categories_sizes":[],"default_left":[0,0,0,0,0,0,0,0,0,0,0,0,0,0,0,0,0,0,0,0,0,0,0,0,0,0,0,0,0,0,0,0,0,0,0,0,0,0,0,0,0,0,0,0,0,0,0,0,0,0,0,0,0],"id":21,"left_children":[1,3,5,7,9,11,-1,13,15,17,19,21,-1,23,25,27,29,-1,31,33,-1,-1,35,37,39,41,43,-1,-1,45,47,49,-1,-1,-1,51,-1,-1,-1,-1,-1,-1,-1,-1,-1,-1,-1,-1,-1,-1,-1,-1,-1],"loss_changes":[2.1898047E3,9.132969E2,7.716532E2,1.6849316E2,6.289995E2,2.2343384E2,0E0,1.925879E1,7.248912E2,2.0847168E2,4.8934937E-2,8.9642944E1,0E0,9.224609E0,7.220831E2,1.3418579E-1,1.2166168E2,0E0,1.201294E0,4.0771327E0,0E0,0E0,6.061084E1,7.578125E-1,6.981029E1,3.310251E2,1.1648422E2,0E0,0E0,1.2495654E2,3.783168E1,2.0575958E1,0E0,0E0,0E0,4.454065E1,0E0,0E0,0E0,0E0,0E0,0E0,0E0,0E0,0E0,0E0,0E0,0E0,0E0,0E0,0E0,0E0,0E0],"parents":[2147483647,0,0,1,1,2,2,3,3,4,4,5,5,7,7,8,8,9,9,10,10,11,11,13,13,14,14,15,15,16,16,18,18,19,19,22,22,23,23,24,24,25,25,26,26,29,29,30,30,31,31,35,35],"right_children":[2,4,6,8,10,12,-1,14,16,18,20,22,-1,24,26,28,30,-1,32,34,-1,-1,36,38,40,42,44,-1,-1,46,48,50,-1,-1,-1,52,-1,-1,-1,-1,-1,-1,-1,-1,-1,-1,-1,-1,-1,-1,-1,-1,-1],"split_conditions":[2.47E7,5.29028E5,1.2E1,1E0,1.5047155E6,2.6E2,-1.5590961E-1,5.4E2,1E0,1E0,2.32E2,1.91E7,-1.5534976E-1,4.972862E6,8.9E2,8E0,1E0,-1.5193923E-1,5.0718E4,2E0,-1.5558957E-1,1.7590371E0,6.01E7,2E0,2.896E4,5.2237E4,1.11E7,-1.9270305E-1,-1.5625933E-1,5.3517E4,2.6E2,3.3503E4,3.5087416E-1,2.4513666E-1,-1.5174334E-1,8E0,1.1930623E0,-1.5617895E-1,-1.4963005E-1,-1.5284547E-1,9.5608026E-1,-1.2461564E-1,3.2022903E0,-1.4939569E-1,5.105521E-1,-1.5577634E-1,3.722348E-1,1.4287524E0,-9.632996E-2,3.489553E-1,-2.1613932E-1,-1.4700858E-1,3.5182652E-1],"split_indices":[28,21,7,32,18,8,0,31,85,48,67,20,0,71,30,41,50,0,0,41,0,0,76,53,68,0,29,0,0,0,6,0,0,0,0,8,0,0,0,0,0,0,0,0,0,0,0,0,0,0,0,0,0],"split_type":[0,0,0,0,0,0,0,0,0,0,0,0,0,0,0,0,0,0,0,0,0,0,0,0,0,0,0,0,0,0,0,0,0,0,0,0,0,0,0,0,0,0,0,0,0,0,0,0,0,0,0,0,0],"sum_hessian":[5.8008848E4,5.636803E4,1.6408147E3,5.515659E4,1.2114418E3,1.2394688E3,4.0134595E2,5.3474953E4,1.6816373E3,7.2836554E2,4.8307617E2,1.157708E3,8.1760704E1,5.18024E4,1.6725569E3,1.3432288E3,3.384085E2,8.52784E1,6.4308716E2,3.3586002E1,4.4949017E2,3.1472929E0,1.1545607E3,5.1755246E4,4.7151245E1,1.1357947E1,1.6611989E3,2.7265083E1,1.3159637E3,3.264767E2,1.1931793E1,5.301904E1,5.900681E2,1.6206251E0,3.1965376E1,1.1477556E3,6.8051453E0,4.950149E4,2.2537568E3,4.2359E1,4.7922463E0,3.8259816E0,7.5319657E0,1.6377231E3,2.347582E1,4.6530666E1,2.7994604E2,1.0391384E1,1.5404091E0,4.710459E1,5.9144464E0,1.5833472E1,1.1319221E3],"tree_param":{"num_deleted":"0","num_feature":"89","num_nodes":"53","size_leaf_vector":"1"}},{"base_weights":[-4.3337756E-1,-1.5642096E-1,1.08592E0,-1.5674621E-1,1.1110969E0,-1.5394203E-1,1.124159E0,1.1284075E0,-1.4476582E-1,1.1308602E0,-1.3190775E-1,3.3963642E-1,-1.1152951E-1],"categories":[],"categories_nodes":[],"categories_segments":[],"categories_sizes":[],"default_left":[0,0,0,0,0,0,0,0,0,0,0,0,0],"id":22,"left_children":[1,-1,3,-1,5,-1,7,9,-1,11,-1,-1,-1],"loss_changes":[7.867744E3,0E0,1.31052E2,0E0,6.7886475E1,0E0,2.2030273E1,1.2572754E1,0E0,6.361328E0,0E0,0E0,0E0],"parents":[2147483647,0,0,2,2,4,4,6,6,7,7,9,9],"right_children":[2,-1,4,-1,6,-1,8,10,-1,12,-1,-1,-1],"split_conditions":[1E0,-1.5642096E-1,5.2008E4,-1.5674621E-1,2.8E1,-1.5394203E-1,3.12E2,2E0,-1.4476582E-1,9.75E2,-1.3190775E-1,3.3963642E-1,-1.1152951E-1],"split_indices":[84,0,0,0,70,0,36,53,0,31,0,0,0],"split_type":[0,0,0,0,0,0,0,0,0,0,0,0,0],"sum_hessian":[5.88247E4,5.5603766E4,3.220934E3,4.9336853E1,3.1715972E3,2.4997055E1,3.1466003E3,3.1385989E3,8.001421E0,3.1339756E3,4.6232176E0,3.131594E3,2.3816404E0],"tree_param":{"num_deleted":"0","num_feature":"89","num_nodes":"13","size_leaf_vector":"1"}},{"base_weights":[-5.212746E-1,-1.5642819E-1,-4.5833638E-1,-1.5595165E-1,7.338347E-1],"categories":[],"categories_nodes":[],"categories_segments":[],"categories_sizes":[],"default_left":[0,0,0,0,0],"id":23,"left_children":[1,-1,3,-1,-1],"loss_changes":[3.0078125E-1,0E0,2.7025358E1,0E0,0E0],"parents":[2147483647,0,0,2,2],"right_children":[2,-1,4,-1,-1],"split_conditions":[4.4E1,-1.5642819E-1,2.1194802E3,-1.5595165E-1,7.338347E-1],"split_indices":[69,0,15,0,0],"split_type":[0,0,0,0,0],"sum_hessian":[5.6183047E4,5.603987E4,1.431731E2,1.4100822E2,2.1648626E0],"tree_param":{"num_deleted":"0","num_feature":"89","num_nodes":"5","size_leaf_vector":"1"}},{"base_weights":[-5.209265E-1,-5.2099705E-1,-3.2721516E-1,-1.563961E-1,-4.9408886E-1,-1.4943463E-1,4.88509E-1,-1.5630202E-1,-2.3445316E-2,-3.8666394E-1,1.9368129E0,-1.5152876E-1,2.8917965E-1,6.419744E-2,6.711702E-1],"categories":[],"categories_nodes":[],"categories_segments":[],"categories_sizes":[],"default_left":[0,0,0,0,0,0,0,0,0,0,0,0,0,0,0],"id":24,"left_children":[1,3,5,-1,7,-1,-1,-1,9,11,13,-1,-1,-1,-1],"loss_changes":[5.9765625E-1,2.2949219E-1,8.544146E0,0E0,8.678726E0,0E0,0E0,0E0,2.7919107E1,5.7698984E0,2.6949196E0,0E0,0E0,0E0,0E0],"parents":[2147483647,0,0,1,1,2,2,4,4,8,8,9,9,10,10],"right_children":[2,4,6,-1,8,-1,-1,-1,10,12,14,-1,-1,-1,-1],"split_conditions":[1.2E8,3.436E3,3.7286304E1,-1.563961E-1,1E0,-1.4943463E-1,4.88509E-1,-1.5630202E-1,4E0,3.3416666E2,3.479E3,-1.5152876E-1,2.8917965E-1,6.419744E-2,6.711702E-1],"split_indices":[27,6,17,0,87,0,0,0,26,10,74,0,0,0,0],"split_type":[0,0,0,0,0,0,0,0,0,0,0,0,0,0,0],"sum_hessian":[5.618774E4,5.61656E4,2.2138329E1,5.5480586E4,6.85017E2,2.104451E1,1.0938189E0,6.4785675E2,3.7160286E1,3.2028442E1,5.131841E0,3.0021887E1,2.006558E0,1.0162526E0,4.115588E0],"tree_param":{"num_deleted":"0","num_feature":"89","num_nodes":"15","size_leaf_vector":"1"}},{"base_weights":[4.2785424E-1,-4.7536567E-1,1.0144976E0,-5.130606E-1,-2.1913461E-2,-1.5599053E-1,1.1175194E0,-5.1741254E-1,-2.869928E-1,-1.5617935E-1,9.2798525E-1,3.38929E-1,-1.6004267E-1,-5.186526E-1,-4.743985E-1,-4.7746196E-1,1.1385157E0,1.1312838E0,-1.555656E-1,-5.197122E-1,-4.993391E-1,1.3674291E0,-5.086794E-1,-4.9491766E-1,1.3213463E0,-1.0819449E-1,3.5442075E-1,1.1144501E0,1.4619696E0,-1.5360641E-1,-1.5636434E-1,-1.5625624E-1,2.699282E-1,4.5353058E-1,-1.1103084E-1,-1.5703292E-1,3.992299E-1,5.8418397E-2,-1.5569443E-1,7.6367044E-1,-1.18908875E-1,3.4443194E-1,-1.4896573E-1],"categories":[],"categories_nodes":[],"categories_segments":[],"categories_sizes":[],"default_left":[0,0,0,0,0,0,0,0,0,0,0,0,0,0,0,0,0,0,0,0,0,0,0,0,0,0,0,0,0,0,0,0,0,0,0,0,0,0,0,0,0,0,0],"id":25,"left_children":[1,3,5,7,9,-1,11,13,15,-1,17,-1,-1,19,21,23,25,27,-1,29,31,33,35,37,39,-1,-1,41,-1,-1,-1,-1,-1,-1,-1,-1,-1,-1,-1,-1,-1,-1,-1],"loss_changes":[5.7833266E4,7.345967E2,1.0460828E4,3.888867E1,1.5634624E3,0E0,1.2540469E3,1.8300781E0,2.0463173E2,0E0,3.347306E2,0E0,0E0,5.1464844E-1,7.030867E1,2.1496002E1,6.141266E0,5.7341675E1,0E0,1.4746094E-1,6.0456238E1,5.679966E0,3.0110687E1,1.1022858E1,1.499686E1,0E0,0E0,5.4431274E1,0E0,0E0,0E0,0E0,0E0,0E0,0E0,0E0,0E0,0E0,0E0,0E0,0E0,0E0,0E0],"parents":[2147483647,0,0,1,1,2,2,3,3,4,4,6,6,7,7,8,8,10,10,13,13,14,14,15,15,16,16,17,17,19,19,20,20,21,21,22,22,23,23,24,24,27,27],"right_children":[2,4,6,8,10,-1,12,14,16,-1,18,-1,-1,20,22,24,26,28,-1,30,32,34,36,38,40,-1,-1,42,-1,-1,-1,-1,-1,-1,-1,-1,-1,-1,-1,-1,-1,-1,-1],"split_conditions":[9.615385E3,4.040404E2,1E0,4.183495E6,1E0,-1.5599053E-1,2E0,1.349E3,5.24E2,-1.5617935E-1,1.76E2,3.38929E-1,-1.6004267E-1,2E0,5.3E1,3.6E1,1.01E7,1.68E2,-1.555656E-1,2E0,6.5438543E4,1.000057E6,1E0,3.0922202E6,6.0172E4,-1.0819449E-1,3.5442075E-1,7.692308E4,1.4619696E0,-1.5360641E-1,-1.5636434E-1,-1.5625624E-1,2.699282E-1,4.5353058E-1,-1.1103084E-1,-1.5703292E-1,3.992299E-1,5.8418397E-2,-1.5569443E-1,7.6367044E-1,-1.18908875E-1,3.4443194E-1,-1.4896573E-1],"split_indices":[39,39,48,31,48,0,4,31,1,0,6,0,0,53,1,70,23,37,0,41,24,26,87,19,0,0,0,16,0,0,0,0,0,0,0,0,0,0,0,0,0,0,0],"split_type":[0,0,0,0,0,0,0,0,0,0,0,0,0,0,0,0,0,0,0,0,0,0,0,0,0,0,0,0,0,0,0,0,0,0,0,0,0,0,0,0,0,0,0],"sum_hessian":[1.0914464E5,4.297649E4,6.616815E4,3.9677973E4,3.2985156E3,4.162683E3,6.200547E4,3.892731E4,7.5066315E2,2.163276E3,1.1352395E3,6.154933E4,4.5613873E2,3.782578E4,1.1015297E3,6.62772E2,8.789115E1,9.955425E2,1.3969707E2,3.5833945E4,1.9918335E3,1.9416922E1,1.0821128E3,6.571201E2,5.6518497E0,2.2383208E0,8.5652824E1,9.92376E2,3.166491E0,5.9113975E3,2.9922549E4,1.9622856E3,2.954783E1,1.8047611E1,1.3693099E0,1.0742064E3,7.906327E0,2.1916637E1,6.352035E2,3.0185533E0,2.6332965E0,9.723495E2,2.0026514E1],"tree_param":{"num_deleted":"0","num_feature":"89","num_nodes":"43","size_leaf_vector":"1"}},{"base_weights":[-4.5500037E-1,-1.5642092E-1,1.0286543E0,-3.244477E-1,1.130577E0,1.08102E0,-1.5917252E-1,3.4195614E-1,-1.4495909E-1,1.3369889E0,-1.201033E-1,-8.73905E-2,4.3571475E-1],"categories":[],"categories_nodes":[],"categories_segments":[],"categories_sizes":[],"default_left":[0,0,0,0,0,0,0,0,0,0,0,0,0],"id":26,"left_children":[1,-1,3,5,7,9,-1,-1,-1,11,-1,-1,-1],"loss_changes":[5.7288945E3,0E0,3.4393213E2,5.1353764E1,3.5236084E1,9.161028E0,0E0,0E0,0E0,4.1109047E0,0E0,0E0,0E0],"parents":[2147483647,0,0,2,2,3,3,4,4,5,5,9,9],"right_children":[2,-1,4,6,8,10,-1,-1,-1,12,-1,-1,-1],"split_conditions":[1E0,-1.5642092E-1,2.46E2,2.29E2,2.85E2,4E0,-1.5917252E-1,3.4195614E-1,-1.4495909E-1,2.8E1,-1.201033E-1,-8.73905E-2,4.3571475E-1],"split_indices":[88,0,68,68,68,4,0,0,0,70,0,0,0],"split_type":[0,0,0,0,0,0,0,0,0,0,0,0,0],"sum_hessian":[5.8143926E4,5.565373E4,2.4901973E3,1.7428224E2,2.315915E3,2.1748295E1,1.5253395E2,2.3029702E3,1.2944779E1,1.8627125E1,3.1211703E0,1.1318223E0,1.7495302E1],"tree_param":{"num_deleted":"0","num_feature":"89","num_nodes":"13","size_leaf_vector":"1"}},{"base_weights":[-5.021824E-1,-5.173463E-1,-1.8769845E-3,-5.1830995E-1,-1.6727252E-1,8.019648E-1,-1.5630087E-1,-5.2020365E-1,-4.796667E-1,-5.1146483E-1,1.4761381E0,-3.6002207E-1,1.0783848E0,-1.5637796E-1,-4.9197307E-1,-1.5645087E-1,-2.6501006E-1,-1.557514E-1,-2.1868236E-1,5.59444E-1,-1.2753269E-1,-4.696565E-1,-1.8558213E-2,1.1896065E0,-1.7599699E-1,-1.5628013E-1,-3.6860037E-1,-1.586724E-1,1.3807434E0,7.0932604E-2,-1.1812646E-1,-1.5199602E-1,-3.1379148E-1,-1.5042506E-1,9.758284E-1,1.257718E0,-1.5607013E-1,4.391287E-1,-1.3231789E-1,2.8186983E-1,6.23424E-1,1.4126177E-1,-1.3354975E-1,6.389153E-1,-1.2928858E-1,-1.5965505E-1,3.8423938E-1],"categories":[],"categories_nodes":[],"categories_segments":[],"categories_sizes":[],"default_left":[0,0,0,0,0,0,0,0,0,0,0,0,0,0,0,0,0,0,0,0,0,0,0,0,0,0,0,0,0,0,0,0,0,0,0,0,0,0,0,0,0,0,0,0,0,0,0],"id":27,"left_children":[1,3,5,7,9,11,-1,13,15,17,19,21,23,-1,25,-1,27,-1,29,-1,-1,31,33,35,-1,-1,37,-1,39,-1,-1,-1,41,-1,43,45,-1,-1,-1,-1,-1,-1,-1,-1,-1,-1,-1],"loss_changes":[4.2968066E2,1.8458008E1,6.9610504E2,3.7617188E0,8.694644E1,2.1063348E2,0E0,1.3017578E0,2.2974792E1,1.7241669E-1,2.0481968E1,4.7284184E0,9.8668396E1,0E0,6.603943E0,0E0,1.8393471E2,0E0,4.8974735E-1,0E0,0E0,3.9312172E-1,1.5755615E1,5.844568E1,0E0,0E0,4.911113E1,0E0,1.6066536E1,0E0,0E0,0E0,2.3737414E0,0E0,1.8339E1,2.0408203E1,0E0,0E0,0E0,0E0,0E0,0E0,0E0,0E0,0E0,0E0,0E0],"parents":[2147483647,0,0,1,1,2,2,3,3,4,4,5,5,7,7,8,8,9,9,10,10,11,11,12,12,14,14,16,16,18,18,21,21,22,22,23,23,26,26,28,28,32,32,34,34,35,35],"right_children":[2,4,6,8,10,12,-1,14,16,18,20,22,24,-1,26,-1,28,-1,30,-1,-1,32,34,36,-1,-1,38,-1,40,-1,-1,-1,42,-1,44,46,-1,-1,-1,-1,-1,-1,-1,-1,-1,-1,-1],"split_conditions":[2.896E4,4.4E1,2.92E4,1E0,5.44E2,7.4E1,-1.5630087E-1,8.36E2,1E0,5.755E3,4.2564256E7,4.1126478E6,1.999E3,-1.5637796E-1,1.907072E2,-1.5645087E-1,8.849558E3,-1.557514E-1,1E0,5.59444E-1,-1.2753269E-1,3.173839E6,6.659718E-1,4E0,-1.7599699E-1,-1.5628013E-1,4.03E2,-1.586724E-1,2.87E2,7.0932604E-2,-1.1812646E-1,-1.5199602E-1,5.597866E6,-1.5042506E-1,4.015E3,1.442E3,-1.5607013E-1,4.391287E-1,-1.3231789E-1,2.8186983E-1,6.23424E-1,1.4126177E-1,-1.3354975E-1,6.389153E-1,-1.2928858E-1,-1.5965505E-1,3.8423938E-1],"split_indices":[68,69,68,50,26,21,0,31,85,12,3,24,26,0,11,0,38,0,53,0,0,19,17,4,0,0,41,0,68,0,0,0,3,0,26,22,0,0,0,0,0,0,0,0,0,0,0],"split_type":[0,0,0,0,0,0,0,0,0,0,0,0,0,0,0,0,0,0,0,0,0,0,0,0,0,0,0,0,0,0,0,0,0,0,0,0,0,0,0,0,0,0,0,0,0,0,0],"sum_hessian":[5.6636117E4,5.4969984E4,1.6661349E3,5.4818605E4,1.5137613E2,6.535692E2,1.0125657E3,5.2245895E4,2.5727136E3,1.25731895E2,2.5644232E1,1.2553887E2,5.2803033E2,5.0344824E4,1.9010686E3,2.151886E3,4.208278E2,1.2175388E2,3.9780164E0,2.1307474E1,4.3367577E0,9.4743866E1,3.079501E1,4.9523505E2,3.2795273E1,1.5370394E3,3.640293E2,3.6325772E2,5.757006E1,1.0077355E0,2.970281E0,7.4750206E1,1.9993662E1,2.1062931E1,9.732079E0,4.7651743E2,1.8717636E1,1.31172285E1,3.5091205E2,3.6699253E1,2.0870808E1,2.49679E0,1.7496872E1,5.0643067E0,4.667772E0,5.7854137E0,4.70732E2],"tree_param":{"num_deleted":"0","num_feature":"89","num_nodes":"47","size_leaf_vector":"1"}},{"base_weights":[-5.2113116E-1],"categories":[],"categories_nodes":[],"categories_segments":[],"categories_sizes":[],"default_left":[0],"id":28,"left_children":[-1],"loss_changes":[0E0],"parents":[2147483647],"right_children":[-1],"split_conditions":[-1.5633935E-1],"split_indices":[0],"split_type":[0],"sum_hessian":[5.618446E4],"tree_param":{"num_deleted":"0","num_feature":"89","num_nodes":"1","size_leaf_vector":"1"}},{"base_weights":[-5.127233E-1,-5.2069557E-1,-2.1523844E-1,-1.5628718E-1,-4.1249534E-1,4.5840994E-1,-1.5630087E-1,-1.5578744E-1,5.647039E-1,-3.638396E-1,8.355246E-1,-1.3881816E-1,2.0857074E0,-4.4827756E-1,-7.668571E-2,4.1422155E-1,1.1718949E0,1.7593697E-1,7.078879E-1,-1.512683E-1,-3.3785495E-1,-3.7285197E-1,4.801944E-1,1.0540061E0,-1.5418395E-1,1.2121892E0,-1.3912028E-1,1.5320213E-1,-1.1455882E-1,1.2648626E-2,-1.4885227E-1,3.639409E-1,-1.3109058E-1,3.8782397E-1,-1.6057007E-1,3.9495406E-1,2.062374E-1],"categories":[],"categories_nodes":[],"categories_segments":[],"categories_sizes":[],"default_left":[0,0,0,0,0,0,0,0,0,0,0,0,0,0,0,0,0,0,0,0,0,0,0,0,0,0,0,0,0,0,0,0,0,0,0,0,0],"id":29,"left_children":[1,3,5,-1,7,9,-1,-1,11,13,15,-1,17,19,21,23,25,-1,-1,-1,27,29,31,33,-1,35,-1,-1,-1,-1,-1,-1,-1,-1,-1,-1,-1],"loss_changes":[1.3357617E2,1.3388672E0,3.0363083E2,0E0,1.4618256E1,1.4305664E2,0E0,0E0,2.2847042E1,3.4923153E0,4.4284775E1,0E0,1.0090961E0,5.227871E-1,5.8290987E0,8.474635E1,1.2103714E1,0E0,0E0,0E0,1.7170777E0,1.1943173E0,8.819219E0,3.2664482E1,0E0,8.466034E0,0E0,0E0,0E0,0E0,0E0,0E0,0E0,0E0,0E0,0E0,0E0],"parents":[2147483647,0,0,1,1,2,2,4,4,5,5,8,8,9,9,10,10,12,12,13,13,14,14,15,15,16,16,20,20,21,21,22,22,23,23,25,25],"right_children":[2,4,6,-1,8,10,-1,-1,12,14,16,-1,18,20,22,24,26,-1,-1,-1,28,30,32,34,-1,36,-1,-1,-1,-1,-1,-1,-1,-1,-1,-1,-1],"split_conditions":[2.896E4,4.4E1,2.92E4,-1.5628718E-1,2.4E1,9E1,-1.5630087E-1,-1.5578744E-1,2.18E2,6.6E1,5.2126E4,-1.3881816E-1,1.8E1,5.2008E4,5.2008E4,3.6188E4,9.125E3,1.7593697E-1,7.078879E-1,-1.512683E-1,5.2332E4,3.6053E4,8.96E2,2E0,-1.5418395E-1,1.9061696E6,-1.3912028E-1,1.5320213E-1,-1.1455882E-1,1.2648626E-2,-1.4885227E-1,3.639409E-1,-1.3109058E-1,3.8782397E-1,-1.6057007E-1,3.9495406E-1,2.062374E-1],"split_indices":[68,69,68,0,70,21,0,0,10,21,0,0,26,0,0,0,26,0,0,0,0,0,26,6,0,18,0,0,0,0,0,0,0,0,0,0,0],"split_type":[0,0,0,0,0,0,0,0,0,0,0,0,0,0,0,0,0,0,0,0,0,0,0,0,0,0,0,0,0,0,0,0,0,0,0,0,0],"sum_hessian":[5.6369527E4,5.4897594E4,1.4719358E3,5.476133E4,1.3626393E2,4.5937015E2,1.0125657E3,1.2326153E2,1.3002406E1,1.4445029E2,3.1491986E2,8.1756E0,4.826806E0,1.1119279E2,3.3257492E1,1.4079984E2,1.7412004E2,1.2308632E0,3.595943E0,7.143236E1,3.976043E1,2.1926668E1,1.1330825E1,8.326786E1,5.7531963E1,1.7018631E2,3.9337223E0,1.437591E0,3.8322838E1,5.173728E0,1.675294E1,6.118544E0,5.212281E0,7.255499E1,1.0712871E1,1.407035E2,2.9482807E1],"tree_param":{"num_deleted":"0","num_feature":"89","num_nodes":"37","size_leaf_vector":"1"}},{"base_weights":[6.7153764E-1,7.660589E-1,-4.9884087E-1,3.8986796E-1,9.0751934E-1,-5.160964E-1,2.7069008E-1,5.1958133E-2,9.032183E-1,8.846246E-1,1.1765639E0,-5.1683134E-1,2.850509E-1,4.7448838E-1,-4.2116955E-1,1.2129884E0,7.9104793E-1,2.3232278E-1,8.883738E-1,1.2707679E0,-4.221011E-1,4.5825848E-1,-5.172702E-1,1.0240828E0,-1.4586097E-1,-4.8342705E-1,9.101746E-1,1.8238202E0,1.0844893E0,6.71556E-2,8.4650415E-1,-2.802062E-1,4.4751396E0,8.8632655E-1,1.3301741E0,1.7323989E0,9.12095E-1,-4.7063565E-1,1.4962891E0,-5.164243E-1,-1.864733E-1,2.7676907E-1,3.976336E-1,-6.713336E-2,9.816097E-1,-1.4956892E-1,2.4249408E-1,2.6563093E-1,1.0943087E0,4.7071344E-1,1.0469862E0,2.654999E-1,3.928078E-1,-1.5541495E-1,2.9309377E-1,2.5748336E-1,-5.1385574E-2,8.6677325E-1,-1.5440884E-1,2.8419167E-1,1.7282728E0,2.6495272E-1,2.986661E-1,9.7207755E-1,-1.5594515E-1,6.45141E-1,2.3969764E-1,2.577279E-1,6.171396E-1,2.442628E-2,-1.6081816E-1,6.195472E-1,2.3061319E-1,1.0744788E-2,-1.5495202E-1],"categories":[],"categories_nodes":[],"categories_segments":[],"categories_sizes":[],"default_left":[0,0,0,0,0,0,0,0,0,0,0,0,0,0,0,0,0,0,0,0,0,0,0,0,0,0,0,0,0,0,0,0,0,0,0,0,0,0,0,0,0,0,0,0,0,0,0,0,0,0,0,0,0,0,0,0,0,0,0,0,0,0,0,0,0,0,0,0,0,0,0,0,0,0,0],"id":30,"left_children":[1,3,5,7,9,11,-1,13,15,17,19,21,-1,23,25,27,29,31,33,35,37,-1,39,41,43,45,47,49,51,53,55,57,59,61,63,65,67,69,71,73,-1,-1,-1,-1,-1,-1,-1,-1,-1,-1,-1,-1,-1,-1,-1,-1,-1,-1,-1,-1,-1,-1,-1,-1,-1,-1,-1,-1,-1,-1,-1,-1,-1,-1,-1],"loss_changes":[1.817261E4,8.088125E3,2.9726147E2,7.20529E3,6.7934375E2,1.3558838E1,0E0,5.007986E3,5.7196094E2,2.4875E2,1.3046357E3,1.1666016E1,0E0,4.5118457E3,9.7999023E2,3.4192773E2,4.8600586E2,1.2692682E3,9.0375E1,1.3524375E3,4.564016E1,0E0,7.48291E-1,2.134502E2,1.6564629E3,2.211565E2,3.2547638E1,3.1715723E2,1.6133984E2,4.598092E2,1.3491162E2,3.888487E2,2.798849E2,3.3796875E1,1.6443441E3,1.3931758E3,2.776565E2,1.7072403E1,3.4405499E0,5.661621E-1,0E0,0E0,0E0,0E0,0E0,0E0,0E0,0E0,0E0,0E0,0E0,0E0,0E0,0E0,0E0,0E0,0E0,0E0,0E0,0E0,0E0,0E0,0E0,0E0,0E0,0E0,0E0,0E0,0E0,0E0,0E0,0E0,0E0,0E0,0E0],"parents":[2147483647,0,0,1,1,2,2,3,3,4,4,5,5,7,7,8,8,9,9,10,10,11,11,13,13,14,14,15,15,16,16,17,17,18,18,19,19,20,20,22,22,23,23,24,24,25,25,26,26,27,27,28,28,29,29,30,30,31,31,32,32,33,33,34,34,35,35,36,36,37,37,38,38,39,39],"right_children":[2,4,6,8,10,12,-1,14,16,18,20,22,-1,24,26,28,30,32,34,36,38,-1,40,42,44,46,48,50,52,54,56,58,60,62,64,66,68,70,72,74,-1,-1,-1,-1,-1,-1,-1,-1,-1,-1,-1,-1,-1,-1,-1,-1,-1,-1,-1,-1,-1,-1,-1,-1,-1,-1,-1,-1,-1,-1,-1,-1,-1,-1,-1],"split_conditions":[1.4957224E3,8E0,1E0,3.2E1,1E0,3.51E2,2.7069008E-1,6E0,2.29E2,2.2E1,1.04E7,1.34E2,2.850509E-1,1E0,3.4641016E0,4.43E2,3E0,1.1E1,1E0,2.29E2,1E1,4.5825848E-1,2.448149E2,1E0,3.0016E4,1E0,1E0,9.7E2,1.6129032E4,1.23E2,6.3899025E6,8E0,1.2411E4,1E0,1.149012E2,2.448149E2,2.92E4,2.4E1,2.39E2,1E0,-1.864733E-1,2.7676907E-1,3.976336E-1,-6.713336E-2,9.816097E-1,-1.4956892E-1,2.4249408E-1,2.6563093E-1,1.0943087E0,4.7071344E-1,1.0469862E0,2.654999E-1,3.928078E-1,-1.5541495E-1,2.9309377E-1,2.5748336E-1,-5.1385574E-2,8.6677325E-1,-1.5440884E-1,2.8419167E-1,1.7282728E0,2.6495272E-1,2.986661E-1,9.7207755E-1,-1.5594515E-1,6.45141E-1,2.3969764E-1,2.577279E-1,6.171396E-1,2.442628E-2,-1.6081816E-1,6.195472E-1,2.3061319E-1,1.0744788E-2,-1.5495202E-1],"split_indices":[15,54,86,37,85,68,0,41,68,1,77,68,0,85,11,1,67,4,88,68,5,0,11,9,67,86,32,26,38,1,18,8,0,87,11,11,68,70,68,31,0,0,0,0,0,0,0,0,0,0,0,0,0,0,0,0,0,0,0,0,0,0,0,0,0,0,0,0,0,0,0,0,0,0,0],"split_type":[0,0,0,0,0,0,0,0,0,0,0,0,0,0,0,0,0,0,0,0,0,0,0,0,0,0,0,0,0,0,0,0,0,0,0,0,0,0,0,0,0,0,0,0,0,0,0,0,0,0,0,0,0,0,0,0,0,0,0,0,0,0,0,0,0,0,0,0,0,0,0,0,0,0,0],"sum_hessian":[1.6426678E5,1.5199206E5,1.2274727E4,4.153643E4,1.10455625E5,1.2126022E4,1.4870451E2,2.5049107E4,1.6487324E4,1.0179731E5,8.658315E3,1.2120595E4,5.42733E0,1.3232088E4,1.181702E4,4.3804517E3,1.2106872E4,5.8211127E2,1.012152E5,8.176695E3,4.8162082E2,1.8546469E0,1.211874E4,7.015819E3,6.216269E3,1.1289717E4,5.273028E2,7.590487E2,3.621403E3,8.616484E2,1.1245224E4,5.202049E2,6.190639E1,1.00751336E5,4.6386346E2,3.5735364E3,4.6031587E3,4.7047272E2,1.114811E1,1.2027154E4,9.158593E1,5.2509917E3,1.764827E3,6.0786304E3,1.3763853E2,1.1159568E4,1.3014845E2,5.2389197E2,3.4108255E0,6.6005817E2,9.8990555E1,1.9216116E3,1.6997915E3,5.2463184E2,3.3701657E2,1.1116783E4,1.2844038E2,3.505586E1,4.8514902E2,1.6999826E1,4.4906567E1,9.79353E4,2.816037E3,2.278553E2,2.3600818E2,2.4671848E3,1.1063516E3,4.401184E3,2.0197417E2,4.982274E1,4.2065E2,5.224703E0,5.9234076E0,1.7302307E0,1.2025424E4],"tree_param":{"num_deleted":"0","num_feature":"89","num_nodes":"75","size_leaf_vector":"1"}},{"base_weights":[-4.9052036E-1,-5.0410795E-1,-2.3244528E-1,-3.177828E-1,-5.141904E-1,-1.5536278E-1,7.902263E-1,-5.050901E-1,2.9709175E-2,-5.1498675E-1,-2.8338546E-1,8.564917E-1,-1.4872137E-1,-5.1251256E-1,3.2594872E-1,-5.099583E-1,6.456097E-1,-1.5473913E-1,-4.6357232E-1,-1.5354511E-1,1.2205437E0,8.7272567E-1,-1.35449E-1,3.3585384E-2,-5.1525897E-1,-1.383245E-1,1.4458436E0,-5.1235425E-1,-5.273225E-2,9.5512563E-1,-1.5556568E-1,6.8773866E-1,-5.149824E-1,1.42693E0,-1.1345408E-1,7.455494E-1,9.4698167E-1,-1.2673657E-1,1.8957888E-1,-1.0231682E-1,-1.5499766E-1,-7.954138E-2,5.633223E-1,-1.544233E-1,-7.603054E-2,6.675445E-2,-8.4963605E-2,-1.3341981E-1,2.9289192E-1,-1.4467736E-1,3.9193305E-1,-1.5495127E-1,-9.232467E-2,1.4672239E-1,4.4210276E-1,1.7847943E-1,2.5549012E-1,2.8622648E-1,-1.09659E-1],"categories":[],"categories_nodes":[],"categories_segments":[],"categories_sizes":[],"default_left":[0,0,0,0,0,0,0,0,0,0,0,0,0,0,0,0,0,0,0,0,0,0,0,0,0,0,0,0,0,0,0,0,0,0,0,0,0,0,0,0,0,0,0,0,0,0,0,0,0,0,0,0,0,0,0,0,0,0,0],"id":31,"left_children":[1,3,5,7,9,-1,11,13,15,17,19,21,-1,23,25,27,29,-1,31,-1,33,35,-1,37,39,-1,41,43,45,47,-1,49,51,53,-1,55,57,-1,-1,-1,-1,-1,-1,-1,-1,-1,-1,-1,-1,-1,-1,-1,-1,-1,-1,-1,-1,-1,-1],"loss_changes":[1.5739746E2,8E1,6.567654E2,1.4276044E2,7.294922E0,0E0,4.2268036E1,8.957275E0,2.5595056E2,1.4404297E0,4.920783E1,1.0317444E1,0E0,2.136261E0,1.2324396E1,4.2262268E-1,1.3007013E2,0E0,3.798436E1,0E0,6.789936E0,3.6564636E0,0E0,2.452237E0,1.6662598E-1,0E0,4.710477E0,1.22161865E-1,2.694696E-1,8.867462E0,0E0,2.0611916E1,3.3172607E-2,2.3971558E-2,0E0,2.2894363E0,3.0346375E0,0E0,0E0,0E0,0E0,0E0,0E0,0E0,0E0,0E0,0E0,0E0,0E0,0E0,0E0,0E0,0E0,0E0,0E0,0E0,0E0,0E0,0E0],"parents":[2147483647,0,0,1,1,2,2,3,3,4,4,6,6,7,7,8,8,9,9,10,10,11,11,13,13,14,14,15,15,16,16,18,18,20,20,21,21,23,23,24,24,26,26,27,27,28,28,29,29,31,31,32,32,33,33,35,35,36,36],"right_children":[2,4,6,8,10,-1,12,14,16,18,20,22,-1,24,26,28,30,-1,32,-1,34,36,-1,38,40,-1,42,44,46,48,-1,50,52,54,-1,56,58,-1,-1,-1,-1,-1,-1,-1,-1,-1,-1,-1,-1,-1,-1,-1,-1,-1,-1,-1,-1,-1,-1],"split_conditions":[5.4E2,2.4E1,8.08E3,2.56E2,1.6572858E3,-1.5536278E-1,8.192E3,1.6384E4,7.33E3,1.97E2,7.34E2,5.4058E4,-1.4872137E-1,3E0,6.0606062E4,1.2E7,9.198E3,-1.5473913E-1,2.04E2,-1.5354511E-1,1.518E3,7.037834E3,-1.35449E-1,6.689E3,6E0,-1.383245E-1,5.24E2,3.415E3,2.57E2,5.24E2,-1.5556568E-1,7.3025795E1,5.825E2,1.0575454E3,-1.1345408E-1,5.0013566E5,2.6E2,-1.2673657E-1,1.8957888E-1,-1.0231682E-1,-1.5499766E-1,-7.954138E-2,5.633223E-1,-1.544233E-1,-7.603054E-2,6.675445E-2,-8.4963605E-2,-1.3341981E-1,2.9289192E-1,-1.4467736E-1,3.9193305E-1,-1.5495127E-1,-9.232467E-2,1.4672239E-1,4.4210276E-1,1.7847943E-1,2.5549012E-1,2.8622648E-1,-1.09659E-1],"split_indices":[31,36,1,68,10,0,1,67,0,31,68,0,0,3,38,16,0,0,41,0,68,24,0,1,3,0,1,0,67,1,0,11,10,42,0,23,7,0,0,0,0,0,0,0,0,0,0,0,0,0,0,0,0,0,0,0,0,0,0],"split_type":[0,0,0,0,0,0,0,0,0,0,0,0,0,0,0,0,0,0,0,0,0,0,0,0,0,0,0,0,0,0,0,0,0,0,0,0,0,0,0,0,0,0,0,0,0,0,0,0,0,0,0,0,0,0,0,0,0,0,0],"sum_hessian":[4.49181E4,4.267055E4,2.2475515E3,2.1921208E3,4.047843E4,1.7575171E3,4.9003452E2,1.4240609E3,7.6806E2,4.033801E4,1.4041713E2,4.663382E2,2.3696308E1,1.4118344E3,1.2226526E1,4.094562E2,3.5860382E2,3.970325E4,6.347633E2,1.2247421E2,1.794291E1,4.6094992E2,5.388267E0,7.0085063E0,1.4048259E3,7.525852E0,4.7006736E0,4.0720187E2,2.2543244E0,2.8342825E2,7.517556E1,2.6603752E1,6.0815955E2,1.59865885E1,1.9563209E0,1.7399448E2,2.8695544E2,4.1440167E0,2.8644898E0,1.3149215E1,1.3916766E3,1.0252411E0,3.6754327E0,4.0249838E2,4.703487E0,1.0431343E0,1.21119E0,3.9264598E0,2.795018E2,9.278418E0,1.7325335E1,6.022445E2,5.915015E0,1.3031958E0,1.4683393E1,7.46355E1,9.9358986E1,2.856817E2,1.2737337E0],"tree_param":{"num_deleted":"0","num_feature":"89","num_nodes":"59","size_leaf_vector":"1"}},{"base_weights":[2.8329375E-1,-4.872255E-1,6.628584E-1,-5.1140237E-1,5.4620963E-1,8.746895E-1,-1.550136E-1,-5.1292205E-1,-3.3152327E-1,8.815025E-1,-1.5401722E-1,-4.8016122E-1,8.84358E-1,-5.1362556E-1,-2.1834685E-1,-5.0174886E-1,2.5868976E-1,2.64908E-1,2.166479E-2,-9.320031E-3,-1.5458861E-1,-1.5613192E-1,8.871194E-1,-5.1448846E-1,-4.4634604E-1,-1.5240194E-1,9.1763276E-1,-1.5326178E-1,-2.9440957E-1,-4.5597067E-1,1.7258267E0,8.8756526E-1,-1.4664958E-1,-1.5448745E-1,-1.3991784E-1,-1.9502856E-2,-1.5502459E-1,3.0826163E-1,-8.044511E-2,-1.3264912E-1,-1.3683663E-2,-1.4791916E-1,3.797567E-2,7.213278E-1,1.609235E-1,2.663091E-1,-1.3086043E-1],"categories":[],"categories_nodes":[],"categories_segments":[],"categories_sizes":[],"default_left":[0,0,0,0,0,0,0,0,0,0,0,0,0,0,0,0,0,0,0,0,0,0,0,0,0,0,0,0,0,0,0,0,0,0,0,0,0,0,0,0,0,0,0,0,0,0,0],"id":32,"left_children":[1,3,5,7,9,11,-1,13,15,17,-1,19,21,23,25,27,-1,-1,-1,29,-1,-1,31,33,35,-1,37,-1,39,41,43,45,-1,-1,-1,-1,-1,-1,-1,-1,-1,-1,-1,-1,-1,-1,-1],"loss_changes":[2.5876242E4,7.298613E2,1.4811889E4,7.630371E0,2.3777861E2,6.586992E2,0E0,5.751465E0,4.958686E1,5.6259155E-1,0E0,5.896248E0,1.9402344E2,1.4086914E0,2.3218906E1,2.512474E-1,0E0,0E0,0E0,2.0773075E1,0E0,0E0,3.0984375E1,3.8916016E-1,9.764587E0,0E0,2.1529408E0,0E0,3.9557445E-1,5.226855E-1,3.1400547E0,9.066406E0,0E0,0E0,0E0,0E0,0E0,0E0,0E0,0E0,0E0,0E0,0E0,0E0,0E0,0E0,0E0],"parents":[2147483647,0,0,1,1,2,2,3,3,4,4,5,5,7,7,8,8,9,9,11,11,12,12,13,13,14,14,15,15,19,19,22,22,23,23,24,24,26,26,28,28,29,29,30,30,31,31],"right_children":[2,4,6,8,10,12,-1,14,16,18,-1,20,22,24,26,28,-1,-1,-1,30,-1,-1,32,34,36,-1,38,-1,40,42,44,46,-1,-1,-1,-1,-1,-1,-1,-1,-1,-1,-1,-1,-1,-1,-1],"split_conditions":[2E0,1.2005E3,1E1,3E0,2.4E1,5.3333335E0,-1.550136E-1,3.26E2,2.86E3,1.4871795E6,-1.5401722E-1,1E0,1E0,9.98744E5,6.56866E2,6.2994E4,2.5868976E-1,2.64908E-1,2.166479E-2,4.5E0,-1.5458861E-1,-1.5613192E-1,2.35E2,6.4635E4,2.57E2,-1.5240194E-1,3.2E1,-1.5326178E-1,6.092872E6,3.3333333E0,5E0,9E0,-1.4664958E-1,-1.5448745E-1,-1.3991784E-1,-1.9502856E-2,-1.5502459E-1,3.0826163E-1,-8.044511E-2,-1.3264912E-1,-1.3683663E-2,-1.4791916E-1,3.797567E-2,7.213278E-1,1.609235E-1,2.663091E-1,-1.3086043E-1],"split_indices":[69,42,10,53,6,42,0,13,12,16,0,5,85,21,43,1,0,0,0,42,0,0,68,0,67,0,37,0,3,42,4,5,0,0,0,0,0,0,0,0,0,0,0,0,0,0,0],"split_type":[0,0,0,0,0,0,0,0,0,0,0,0,0,0,0,0,0,0,0,0,0,0,0,0,0,0,0,0,0,0,0,0,0,0,0,0,0,0,0,0,0,0,0,0,0,0,0],"sum_hessian":[8.847522E4,2.9199572E4,5.927565E4,2.8532568E4,6.670039E2,5.0251566E4,9.024083E3,2.829169E4,2.4087779E2,5.0680273E2,1.6020119E2,3.557193E2,4.9895848E4,2.8223543E4,6.8147316E1,2.1132495E2,2.9552837E1,5.0575912E2,1.0435951E0,2.4788431E1,3.3093088E2,9.752056E1,4.9798324E4,2.785958E4,3.6396286E2,5.474171E1,1.34056015E1,2.0101556E2,1.0309382E1,2.0300117E1,4.4883146E0,4.978255E4,1.5775916E1,2.7580559E4,2.7902094E2,5.7022575E1,3.0694028E2,1.2390612E1,1.0149903E0,5.9805117E0,4.3288703E0,1.9229345E1,1.0707719E0,2.2074022E0,2.2809124E0,4.9777926E4,4.622811E0],"tree_param":{"num_deleted":"0","num_feature":"89","num_nodes":"47","size_leaf_vector":"1"}},{"base_weights":[-3.923247E-1,-4.4795746E-1,5.286515E-1,-4.7546673E-1,7.96113E-1,8.871808E-1,-1.5524793E-1,-5.0560445E-1,-2.3013489E-1,-1.5382594E-1,8.8851887E-1,-1.4722368E-1,8.8963395E-1,-5.1051676E-1,4.5750847E-1,-5.118503E-1,7.873962E-1,8.995526E-1,-1.4577162E-1,8.906583E-1,-9.289107E-2,-5.143745E-1,1.057445E-1,-1.5242608E-1,2.6752418E-1,-1.5527898E-1,-2.8367144E-1,-4.9227947E-1,1.2458408E0,2.7010596E-1,2.652729E-2,8.891959E-1,4.7444123E-1,-1.5478164E-1,-1.4588332E-1,3.0145442E-1,-1.5424252E-1,-1.3614777E-1,4.8709658E-1,-1.5490977E-1,-5.9915733E-2,1.0793027E0,2.7070427E-1,2.6557958E-1,3.027768E-1],"categories":[],"categories_nodes":[],"categories_segments":[],"categories_sizes":[],"default_left":[0,0,0,0,0,0,0,0,0,0,0,0,0,0,0,0,0,0,0,0,0,0,0,0,0,0,0,0,0,0,0,0,0,0,0,0,0,0,0,0,0,0,0,0,0],"id":33,"left_children":[1,3,5,7,9,11,-1,13,15,-1,17,-1,19,21,23,25,27,29,-1,31,-1,33,35,-1,-1,-1,37,39,41,-1,-1,43,-1,-1,-1,-1,-1,-1,-1,-1,-1,-1,-1,-1,-1],"loss_changes":[2.4494E3,1.5431299E3,1.02195886E3,3.2597852E2,1.18451904E2,7.2940674E0,0E0,1.8606348E2,1.3840957E3,0E0,1.4262146E1,0E0,2.764038E0,9.2958984E1,8.42489E1,4.810669E0,6.148711E2,5.0787354E-1,0E0,6.385498E-1,0E0,1.4560547E0,1.3647284E2,0E0,0E0,0E0,3.1598179E1,1.8479996E0,6.1972546E2,0E0,0E0,6.0791016E-2,0E0,0E0,0E0,0E0,0E0,0E0,0E0,0E0,0E0,0E0,0E0,0E0,0E0],"parents":[2147483647,0,0,1,1,2,2,3,3,4,4,5,5,7,7,8,8,10,10,12,12,13,13,14,14,15,15,16,16,17,17,19,19,21,21,22,22,26,26,27,27,28,28,31,31],"right_children":[2,4,6,8,10,12,-1,14,16,-1,18,-1,20,22,24,26,28,30,-1,32,-1,34,36,-1,-1,-1,38,40,42,-1,-1,44,-1,-1,-1,-1,-1,-1,-1,-1,-1,-1,-1,-1,-1],"split_conditions":[1.1632E4,6.878695E6,1E1,2.1787515E6,5.06466E6,3.18112E6,-1.5524793E-1,3.4E7,1.817362E2,-1.5382594E-1,2E0,-1.4722368E-1,7.706072E7,9.98744E5,2E2,6.410957E6,9.902292E2,4.1249E4,-1.4577162E-1,9E0,-9.289107E-2,1E0,4.21E2,-1.5242608E-1,2.6752418E-1,-1.5527898E-1,8.878875E2,8.592865E2,2.078E3,2.7010596E-1,2.652729E-2,2.448149E2,4.7444123E-1,-1.5478164E-1,-1.4588332E-1,3.0145442E-1,-1.5424252E-1,-1.3614777E-1,4.8709658E-1,-1.5490977E-1,-5.9915733E-2,1.0793027E0,2.7070427E-1,2.6557958E-1,3.027768E-1],"split_indices":[7,21,5,29,75,27,0,18,16,0,41,0,3,21,6,73,15,0,0,5,0,50,67,0,0,0,15,15,12,0,0,11,0,0,0,0,0,0,0,0,0,0,0,0,0],"split_type":[0,0,0,0,0,0,0,0,0,0,0,0,0,0,0,0,0,0,0,0,0,0,0,0,0,0,0,0,0,0,0,0,0,0,0,0,0,0,0,0,0,0,0,0,0],"sum_hessian":[4.78002E4,4.5077734E4,2.7224653E3,4.410313E4,9.746044E2,2.0276958E3,6.9476965E2,3.9277082E4,4.826046E3,6.396961E1,9.1063477E2,3.2497933E0,2.024446E3,3.9078234E4,1.9884744E2,3.7800044E3,1.0460415E3,9.037252E2,6.9095097E0,2.0229753E3,1.4706033E0,3.8835297E4,2.4293681E2,6.1631172E1,1.3721628E2,3.685912E3,9.4092476E1,2.7588324E2,7.701582E2,9.0272424E2,1.0009923E0,2.0209843E3,1.9911103E0,3.6770734E4,2.064566E3,9.888692E1,1.440499E2,8.708555E1,7.006924E0,2.541908E2,2.1692434E1,9.694181E1,6.7321643E2,1.9650239E3,5.5960354E1],"tree_param":{"num_deleted":"0","num_feature":"89","num_nodes":"45","size_leaf_vector":"1"}},{"base_weights":[5.104838E-1,-1.5500659E-1,7.5055E-1,8.0722266E-1,-5.135733E-1,8.447766E-1,-4.8185512E-1,-1.5513709E-1,2.4726851E-1,8.6161685E-1,-4.5817587E-1,9.551246E-1,-1.5538189E-1,8.704735E-1,-5.341422E-1,-5.245094E-1,8.9335847E-1,-3.0052645E-2,3.713408E-1,-1.2639403E-1,2.6258093E-1,-1.5599458E-1,-1.9124801E-1,-1.5793748E-1,1.731053E-1,6.582683E-2,2.7231967E-1,-1.6085935E-1,3.8032857E-1],"categories":[],"categories_nodes":[],"categories_segments":[],"categories_sizes":[],"default_left":[0,0,0,0,0,0,0,0,0,0,0,0,0,0,0,0,0,0,0,0,0,0,0,0,0,0,0,0,0],"id":34,"left_children":[1,-1,3,5,7,9,11,-1,-1,13,15,17,-1,19,21,23,25,27,-1,-1,-1,-1,-1,-1,-1,-1,-1,-1,-1],"loss_changes":[3.073608E4,0E0,7.238414E3,4.6814727E3,2.1019165E1,2.0620625E3,1.4246173E2,0E0,0E0,1.1471562E3,1.0801134E2,1.881274E1,0E0,5.7146094E2,5.254059E-1,2.7598572E0,3.4804535E-1,1.1195148E1,0E0,0E0,0E0,0E0,0E0,0E0,0E0,0E0,0E0,0E0,0E0],"parents":[2147483647,0,0,2,2,3,3,4,4,5,5,6,6,9,9,10,10,11,11,13,13,14,14,15,15,16,16,17,17],"right_children":[2,-1,4,6,8,10,12,-1,-1,14,16,18,-1,20,22,24,26,28,-1,-1,-1,-1,-1,-1,-1,-1,-1,-1,-1],"split_conditions":[1E0,-1.5500659E-1,1.1601E4,1E0,1.52E7,1.4831E4,1E0,-1.5513709E-1,2.4726851E-1,4.29E2,1E0,9.06E2,-1.5538189E-1,2E0,3.2634291E4,1.1595E4,3.4817E4,8E0,3.713408E-1,-1.2639403E-1,2.6258093E-1,-1.5599458E-1,-1.9124801E-1,-1.5793748E-1,1.731053E-1,6.582683E-2,2.7231967E-1,-1.6085935E-1,3.8032857E-1],"split_indices":[85,0,7,40,29,26,49,0,0,8,45,22,0,4,16,7,0,41,0,0,0,0,0,0,0,0,0,0,0],"split_type":[0,0,0,0,0,0,0,0,0,0,0,0,0,0,0,0,0,0,0,0,0,0,0,0,0,0,0,0,0],"sum_hessian":[1.246422E5,2.3612053E4,1.0103015E5,9.669549E4,4.3346543E3,9.39586E4,2.73689E3,4.323793E3,1.0861335E1,9.276005E4,1.1985577E3,6.641957E1,2.6704702E3,9.217553E4,5.8451447E2,1.1430677E3,5.5490025E1,1.5008003E1,5.1411564E1,3.406481E2,9.183488E4,5.193843E2,6.513016E1,1.1415701E3,1.4976962E0,1.49845E0,5.3991577E1,1.1219332E1,3.788672E0],"tree_param":{"num_deleted":"0","num_feature":"89","num_nodes":"29","size_leaf_vector":"1"}},{"base_weights":[-4.4573155E-1,-4.9727988E-1,5.064863E-1,-5.036453E-1,7.420514E-1,-1.7074633E-1,8.7832975E-1,-5.069597E-1,1.9084767E-1,-1.4978407E-1,2.8052005E-1,-5.1141983E-1,1.0618314E0,8.9747286E-1,-1.5929379E-1,-5.1008356E-1,-2.6766993E-2,-4.649834E-1,1.0606685E0,-1.5477856E-1,3.4765887E-1,1.1268164E0,-1.367791E-1,-1.4454134E-1,9.0637976E-1,-5.136687E-1,-3.26191E-1,-1.5445602E-1,7.9832506E-1,-1.5412924E-1,2.1431936E-1,1.3000196E0,-4.065638E-1,3.56149E-1,2.8687572E-1,9.074241E-1,-8.119399E-2,-1.543932E-1,-1.4186431E-1,6.126139E-1,-1.503268E-1,3.659343E-1,-1.4976047E-1,5.622104E-1,-1.3408391E-1,1.4354545E-1,3.971551E-1,-1.4326906E-1,6.0781103E-2,2.728696E-1,8.002654E-2],"categories":[],"categories_nodes":[],"categories_segments":[],"categories_sizes":[],"default_left":[0,0,0,0,0,0,0,0,0,0,0,0,0,0,0,0,0,0,0,0,0,0,0,0,0,0,0,0,0,0,0,0,0,0,0,0,0,0,0,0,0,0,0,0,0,0,0,0,0,0,0],"id":35,"left_children":[1,3,5,7,9,11,13,15,17,-1,-1,19,21,23,-1,25,27,29,31,-1,-1,33,-1,-1,35,37,39,-1,41,-1,43,45,47,-1,-1,49,-1,-1,-1,-1,-1,-1,-1,-1,-1,-1,-1,-1,-1,-1,-1],"loss_changes":[2.2668916E3,3.45958E2,5.9746375E2,1.0041797E2,5.4197044E1,3.5392346E2,4.1790894E1,6.505371E1,1.1899689E2,0E0,0E0,5.568268E0,1.8519897E1,1.9002075E1,0E0,2.824414E1,1.13741455E2,4.0577545E0,3.1995949E1,0E0,0E0,6.6967773E-1,0E0,0E0,2.0917969E0,1.4384766E0,3.4351663E2,0E0,5.8022385E1,0E0,1.0372014E1,8.7942505E-1,6.732385E-1,0E0,0E0,1.81604E0,0E0,0E0,0E0,0E0,0E0,0E0,0E0,0E0,0E0,0E0,0E0,0E0,0E0,0E0,0E0],"parents":[2147483647,0,0,1,1,2,2,3,3,4,4,5,5,6,6,7,7,8,8,11,11,12,12,13,13,15,15,16,16,17,17,18,18,21,21,24,24,25,25,26,26,28,28,30,30,31,31,32,32,35,35],"right_children":[2,4,6,8,10,12,14,16,18,-1,-1,20,22,24,-1,26,28,30,32,-1,-1,34,-1,-1,36,38,40,-1,42,-1,44,46,48,-1,-1,50,-1,-1,-1,-1,-1,-1,-1,-1,-1,-1,-1,-1,-1,-1,-1],"split_conditions":[1.05E7,3.51E2,1E0,3.5886272E6,1E0,1.4225072E-1,5.0718E4,3E0,1.915E2,-1.4978407E-1,2.8052005E-1,1E2,2.32E2,1E0,-1.5929379E-1,1.78E2,2.35E2,1.8002222E2,4E0,-1.5477856E-1,3.4765887E-1,3.75E2,-1.367791E-1,-1.4454134E-1,6E0,2.896E4,4.03E2,-1.5445602E-1,2.36E2,-1.5412924E-1,3E0,1.7E1,4.194E3,3.56149E-1,2.8687572E-1,1.000057E6,-8.119399E-2,-1.543932E-1,-1.4186431E-1,6.126139E-1,-1.503268E-1,3.659343E-1,-1.4976047E-1,5.622104E-1,-1.3408391E-1,1.4354545E-1,3.971551E-1,-1.4326906E-1,6.0781103E-2,2.728696E-1,8.002654E-2],"split_indices":[18,9,48,72,85,17,0,53,10,0,0,9,67,85,0,10,68,11,5,0,0,6,0,0,7,68,41,0,68,0,5,21,12,0,0,26,0,0,0,0,0,0,0,0,0,0,0,0,0,0,0],"split_type":[0,0,0,0,0,0,0,0,0,0,0,0,0,0,0,0,0,0,0,0,0,0,0,0,0,0,0,0,0,0,0,0,0,0,0,0,0,0,0,0,0,0,0,0,0,0,0,0,0,0,0],"sum_hessian":[4.617662E4,4.380568E4,2.370944E3,4.3582426E4,2.2325314E2,8.405692E2,1.5303748E3,4.337569E4,2.0673521E2,2.982892E1,1.9342422E2,6.590099E2,1.8155937E2,1.5102241E3,2.0150692E1,4.3095273E4,2.8041516E2,1.18131424E2,8.86038E1,6.57925E2,1.0848587E0,1.7435184E2,7.207528E0,9.349248E0,1.5008749E3,4.22694E4,8.258778E2,1.764258E2,1.0398936E2,1.1044412E2,7.687298E0,7.627495E1,1.2328851E1,1.24383675E2,4.9968166E1,1.4997732E3,1.10167E0,4.1270957E4,9.984405E2,5.6063656E1,7.6981415E2,7.853873E1,2.5450632E1,1.6676474E0,6.0196505E0,2.744369E0,7.353058E1,1.1235382E1,1.0934685E0,1.4943593E3,5.4139414E0],"tree_param":{"num_deleted":"0","num_feature":"89","num_nodes":"51","size_leaf_vector":"1"}},{"base_weights":[-4.4262308E-1,-4.7894663E-1,5.966757E-1,-4.991562E-1,3.1849107E-1,8.779534E-1,-1.5437283E-1,-5.1007426E-1,-1.730966E-1,7.6003295E-1,-5.060047E-1,9.498381E-1,-1.526672E-1,-5.138783E-1,-3.9930052E-1,-1.5566525E-1,8.654974E-1,-1.4939968E-1,8.936534E-1,-3.8648006E-1,-1.5405771E-1,-1.4566301E-1,9.6793187E-1,-5.1437324E-1,-5.6447547E-2,1.1422354E0,-4.7018898E-1,9.487217E-1,-1.4975728E-1,7.218208E-1,2.7235007E-1,2.303449E-1,-1.487173E-1,9.4782025E-1,3.0490522E0,-1.5466914E-1,-1.464496E-1,-1.364633E-1,4.508624E-1,2.4438821E-1,1.5440946E0,-1.528502E-1,2.9230598E-1,3.012675E-1,-1.4432569E-1,2.717735E-1,-2.0986332E-1,2.8152323E-1,4.7658512E-1,3.894712E-1,1.2759006E0],"categories":[],"categories_nodes":[],"categories_segments":[],"categories_sizes":[],"default_left":[0,0,0,0,0,0,0,0,0,0,0,0,0,0,0,0,0,0,0,0,0,0,0,0,0,0,0,0,0,0,0,0,0,0,0,0,0,0,0,0,0,0,0,0,0,0,0,0,0,0,0],"id":36,"left_children":[1,3,5,7,9,11,-1,13,15,17,19,21,-1,23,25,-1,27,-1,29,31,-1,-1,33,35,37,39,41,43,-1,45,-1,-1,-1,47,49,-1,-1,-1,-1,-1,-1,-1,-1,-1,-1,-1,-1,-1,-1,-1,-1],"loss_changes":[1.7468379E3,7.2058984E2,4.8893854E2,1.551211E2,4.0285168E2,1.2485065E2,0E0,1.757129E1,5.0830133E2,1.215376E2,1.4866638E-1,3.128186E1,0E0,9.204102E0,1.5407701E2,0E0,4.0632324E1,0E0,9.32312E-1,3.7730355E0,0E0,0E0,4.6161377E1,1.0195312E0,2.8768482E1,7.723317E1,7.681796E1,2.6957886E1,0E0,1.4907316E1,0E0,0E0,0E0,5.5166016E0,1.7172104E1,0E0,0E0,0E0,0E0,0E0,0E0,0E0,0E0,0E0,0E0,0E0,0E0,0E0,0E0,0E0,0E0],"parents":[2147483647,0,0,1,1,2,2,3,3,4,4,5,5,7,7,8,8,9,9,10,10,11,11,13,13,14,14,16,16,18,18,19,19,22,22,23,23,24,24,25,25,26,26,27,27,29,29,33,33,34,34],"right_children":[2,4,6,8,10,12,-1,14,16,18,20,22,-1,24,26,-1,28,-1,30,32,-1,-1,34,36,38,40,42,44,-1,46,-1,-1,-1,48,50,-1,-1,-1,-1,-1,-1,-1,-1,-1,-1,-1,-1,-1,-1,-1,-1],"split_conditions":[2.47E7,5.29028E5,1.2E1,1E0,1.5047155E6,2.6E2,-1.5437283E-1,5.4E2,1E0,1E0,2.32E2,8E0,-1.526672E-1,4.972862E6,2.562E3,-1.5566525E-1,2.6E2,-1.4939968E-1,5.0718E4,2E0,-1.5405771E-1,-1.4566301E-1,4.9738985E-2,2E0,1.6E1,3.73E2,1.11E7,6.094494E0,-1.4975728E-1,3.3503E4,2.7235007E-1,2.303449E-1,-1.487173E-1,5.93E7,3.9809E4,-1.5466914E-1,-1.464496E-1,-1.364633E-1,4.508624E-1,2.4438821E-1,1.5440946E0,-1.528502E-1,2.9230598E-1,3.012675E-1,-1.4432569E-1,2.717735E-1,-2.0986332E-1,2.8152323E-1,4.7658512E-1,3.894712E-1,1.2759006E0],"split_indices":[28,21,7,32,18,8,0,31,85,48,67,8,0,71,27,0,6,0,0,41,0,0,39,53,21,26,29,11,0,0,0,0,0,76,0,0,0,0,0,0,0,0,0,0,0,0,0,0,0,0,0],"split_type":[0,0,0,0,0,0,0,0,0,0,0,0,0,0,0,0,0,0,0,0,0,0,0,0,0,0,0,0,0,0,0,0,0,0,0,0,0,0,0,0,0,0,0,0,0,0,0,0,0,0,0],"sum_hessian":[4.626401E4,4.4702207E4,1.561806E3,4.359768E4,1.1045288E3,1.2465035E3,3.1530243E2,4.218457E4,1.4131068E3,7.193655E2,3.851633E2,1.1853767E3,6.112687E1,4.078052E4,1.4040511E3,1.0605198E3,3.5258704E2,6.880853E1,6.5055695E2,2.5902493E1,3.592608E2,1.4434714E1,1.170942E3,4.0736316E4,4.4204773E1,6.1063137E1,1.342988E3,3.3260803E2,1.9979E1,5.3550102E1,5.9700684E2,1.718288E0,2.4184204E1,1.161176E3,9.765976E0,3.894835E4,1.7879633E3,3.577262E1,8.432154E0,5.755802E1,3.505116E0,1.3080385E3,3.4949566E1,3.2046564E2,1.214241E1,4.7730804E1,5.819298E0,1.1468008E3,1.4375302E1,4.8260794E0,4.939897E0],"tree_param":{"num_deleted":"0","num_feature":"89","num_nodes":"51","size_leaf_vector":"1"}},{"base_weights":[-4.2269063E-1,-1.5497668E-1,8.557414E-1,-1.5558419E-1,8.7490875E-1,-1.5307406E-1,8.853484E-1,8.889623E-1,-1.4444448E-1,2.2518006E-1,2.6780757E-1,3.2845515E-1,-1.4512222E-1],"categories":[],"categories_nodes":[],"categories_segments":[],"categories_sizes":[],"default_left":[0,0,0,0,0,0,0,0,0,0,0,0,0],"id":37,"left_children":[1,-1,3,-1,5,-1,7,9,-1,11,-1,-1,-1],"loss_changes":[5.637701E3,0E0,8.510669E1,0E0,4.6287598E1,0E0,1.5970215E1,7.5686035E0,0E0,1.2165052E1,0E0,0E0,0E0],"parents":[2147483647,0,0,2,2,4,4,6,6,7,7,9,9],"right_children":[2,-1,4,-1,6,-1,8,10,-1,12,-1,-1,-1],"split_conditions":[1E0,-1.5497668E-1,5.2008E4,-1.5558419E-1,2.8E1,-1.5307406E-1,3.12E2,2E0,-1.4444448E-1,1.4142135E0,2.6780757E-1,3.2845515E-1,-1.4512222E-1],"split_indices":[84,0,0,0,70,0,36,6,0,19,0,0,0],"split_type":[0,0,0,0,0,0,0,0,0,0,0,0,0],"sum_hessian":[4.6959484E4,4.3746953E4,3.212532E3,4.3828747E1,3.1687034E3,2.3345058E1,3.1453582E3,3.1374124E3,7.9459267E0,1.7872528E1,3.1195398E3,7.7817974E0,1.009073E1],"tree_param":{"num_deleted":"0","num_feature":"89","num_nodes":"13","size_leaf_vector":"1"}},{"base_weights":[-5.164407E-1,-5.1650363E-1,2.920535E-1,-1.5498677E-1,-4.6711293E-1,-1.5444565E-1,3.780869E-1],"categories":[],"categories_nodes":[],"categories_segments":[],"categories_sizes":[],"default_left":[0,0,0,0,0,0,0],"id":38,"left_children":[1,3,-1,-1,5,-1,-1],"loss_changes":[4.647461E0,1.8554688E-2,0E0,0E0,1.0257708E1,0E0,0E0],"parents":[2147483647,0,0,1,1,4,4],"right_children":[2,4,-1,-1,6,-1,-1],"split_conditions":[1.7376E4,4.4E1,2.920535E-1,-1.5498677E-1,2.1194802E3,-1.5444565E-1,3.780869E-1],"split_indices":[12,69,0,0,15,0,0],"split_type":[0,0,0,0,0,0,0],"sum_hessian":[4.4211363E4,4.421015E4,1.2138233E0,4.4094547E4,1.1560252E2,1.13178825E2,2.4237018E0],"tree_param":{"num_deleted":"0","num_feature":"89","num_nodes":"7","size_leaf_vector":"1"}},{"base_weights":[-5.1600903E-1,-5.1609755E-1,-2.8638914E-1,-1.549471E-1,-4.8333305E-1,4.978381E-1,-1.4717111E-1,-1.5474574E-1,1.46000665E-2,1.0736514E0,-1.4970444E-1,-1.22171655E-1,5.5342E-1],"categories":[],"categories_nodes":[],"categories_segments":[],"categories_sizes":[],"default_left":[0,0,0,0,0,0,0,0,0,0,0,0,0],"id":39,"left_children":[1,3,5,-1,7,-1,-1,-1,9,11,-1,-1,-1],"loss_changes":[7.5097656E-1,3.203125E-1,8.477181E0,0E0,8.730225E0,0E0,0E0,0E0,1.9029219E1,1.3792652E1,0E0,0E0,0E0],"parents":[2147483647,0,0,1,1,2,2,4,4,8,8,9,9],"right_children":[2,4,6,-1,8,-1,-1,-1,10,12,-1,-1,-1],"split_conditions":[1.2E8,3.436E3,5.0066624E0,-1.549471E-1,1E0,4.978381E-1,-1.4717111E-1,-1.5474574E-1,2.3E1,4.43E2,-1.4970444E-1,-1.22171655E-1,5.5342E-1],"split_indices":[27,6,15,0,87,0,0,0,14,0,0,0,0],"split_type":[0,0,0,0,0,0,0,0,0,0,0,0,0],"sum_hessian":[4.421893E4,4.420064E4,1.8287657E1,4.3662402E4,5.382395E2,1.0598531E0,1.7227804E1,5.0524072E2,3.2998783E1,1.0420919E1,2.2577864E1,3.7297196E0,6.6912E0],"tree_param":{"num_deleted":"0","num_feature":"89","num_nodes":"13","size_leaf_vector":"1"}},{"base_weights":[3.6734784E-1,-4.6634507E-1,8.058365E-1,-5.068527E-1,-1.7528275E-2,-1.5448454E-1,8.75966E-1,-5.117141E-1,-2.628634E-1,-1.5476583E-1,7.479863E-1,2.6497084E-1,-1.564633E-1,-5.1314944E-1,-4.633543E-1,-4.6246204E-1,8.9762264E-1,8.8693035E-1,